/*!
 * The following copyright notice may not be removed under any circumstances.
 * 
 * Copyright:
 * Alba ©2001, Fontalicious Fonts.
 */
Cufon.registerFont({"w":565,"face":{"font-family":"Alba","font-weight":400,"font-stretch":"normal","units-per-em":"1000","panose-1":"0 0 4 0 0 0 0 0 0 0","ascent":"800","descent":"-200","x-height":"11","cap-height":"9","bbox":"-99.0243 -818 918 542","underline-thickness":"20","underline-position":"-123","unicode-range":"U+0020-U+007E"},"glyphs":{" ":{"w":303},"!":{"d":"120,-213v-39,0,-68,-29,-67,-68r0,-357v-1,-38,29,-67,67,-67v39,0,69,28,68,67r0,357v1,39,-29,68,-68,68xm38,-83v0,46,37,83,83,83v46,0,83,-37,83,-83v0,-44,-39,-82,-83,-82v-44,0,-83,38,-83,82","w":190},"\"":{"d":"121,-417v44,0,83,-38,83,-82r0,-123v1,-44,-39,-83,-83,-83v-44,0,-83,39,-83,83r0,123v-1,44,39,82,83,82xm331,-417v46,0,83,-36,83,-82r0,-123v1,-46,-37,-83,-83,-83v-44,0,-82,39,-82,83r0,123v-1,44,38,82,82,82","w":415},"#":{"d":"327,-433r0,-61r-61,0r0,61r61,0xm394,-221v-42,0,-70,-31,-67,-77r-61,0v3,46,-25,77,-67,77v-42,0,-72,-31,-68,-77v-46,4,-76,-26,-76,-68v0,-42,30,-71,76,-67r0,-61v-46,3,-76,-25,-76,-67v0,-42,30,-72,76,-68v-4,-46,26,-76,68,-76v42,0,71,30,67,76r61,0v-3,-46,25,-76,67,-76v42,0,72,30,68,76v46,-4,76,26,76,68v0,42,-30,71,-76,67r0,61v46,-3,76,25,76,67v0,49,-26,70,-76,68v3,46,-26,77,-68,77","w":539},"$":{"d":"379,-600v60,0,88,73,50,114v-23,25,-71,16,-94,40v-30,33,-18,102,-18,158v0,106,-89,196,-196,196v-39,0,-67,-28,-67,-67v0,-39,28,-68,67,-68v41,0,60,-33,61,-81r1,-96v-3,-108,88,-196,196,-196xm293,-35v0,29,-24,52,-53,52v-29,0,-53,-23,-53,-52v0,-29,24,-53,53,-53v29,0,53,24,53,53xm293,-652v0,29,-24,53,-53,53v-29,0,-53,-24,-53,-53v0,-29,24,-53,53,-53v29,0,53,24,53,53","w":446},"%":{"d":"451,-730v18,-73,135,-51,132,20v0,9,-1,18,-4,25r-269,753v-18,72,-134,49,-132,-20v0,-8,2,-17,5,-26xm715,-168v0,-69,-59,-128,-128,-128v-69,0,-128,59,-128,128v0,69,59,128,128,128v69,0,128,-59,128,-128xm527,-168v0,-32,28,-60,60,-60v32,0,60,28,60,60v0,32,-28,60,-60,60v-32,0,-60,-28,-60,-60xm310,-573v0,-69,-59,-128,-128,-128v-69,0,-128,59,-128,128v0,69,59,128,128,128v69,0,128,-59,128,-128xm122,-573v0,-32,28,-60,60,-60v32,0,60,28,60,60v0,32,-28,60,-60,60v-32,0,-60,-28,-60,-60","w":715},"&":{"d":"122,-328v0,32,28,61,60,60v23,0,34,11,34,34v0,23,-11,34,-34,34v-69,2,-128,-59,-128,-128v0,-69,59,-128,128,-128v69,0,133,60,128,128v-3,48,21,127,-34,127v-55,0,-34,-79,-34,-127v0,-32,-28,-60,-60,-60v-32,0,-60,28,-60,60xm435,-388v-61,0,-40,95,-40,154v0,23,-11,34,-34,34v-23,0,-34,-11,-34,-34r0,-113v-2,-58,50,-108,108,-108v58,0,108,50,108,108r0,113v0,23,-11,34,-34,34v-23,0,-34,-11,-34,-34v0,-60,21,-154,-40,-154xm557,-328v0,-69,59,-130,128,-128v23,0,34,11,34,34v0,23,-11,34,-34,34v-32,-1,-60,28,-60,60v0,32,28,60,60,60v32,0,61,-28,60,-60r0,-195v0,-23,11,-34,34,-34v23,0,34,11,34,34r0,195v2,69,-59,128,-128,128v-69,0,-128,-59,-128,-128","w":813},"'":{"d":"121,-417v44,0,83,-38,83,-82r0,-123v1,-44,-39,-83,-83,-83v-44,0,-83,39,-83,83r0,123v-1,44,39,82,83,82","w":190},"(":{"d":"54,-277v-5,195,163,358,358,358v39,0,68,-28,68,-67v0,-39,-29,-69,-68,-68v-122,3,-223,-101,-223,-223r0,-140v-3,-122,101,-226,223,-223v39,1,68,-29,68,-68v0,-39,-29,-67,-68,-67v-195,0,-363,163,-358,358r0,140","w":479},")":{"d":"479,-277v5,195,-163,358,-358,358v-39,0,-68,-28,-68,-67v0,-39,29,-69,68,-68v122,3,223,-101,223,-223r0,-140v3,-122,-101,-226,-223,-223v-39,1,-68,-29,-68,-68v0,-39,29,-67,68,-67v195,0,363,163,358,358r0,140","w":479},"*":{"d":"241,-111v-56,22,-90,33,-101,33v-16,0,-24,-16,-24,-47v0,-10,1,-35,3,-75v-43,-52,-64,-83,-64,-94v0,-9,9,-18,27,-25v10,-4,38,-12,84,-24v27,-30,58,-131,105,-68v2,2,17,25,45,68v46,12,74,20,84,24v18,7,27,16,27,25v0,11,-21,42,-64,94v2,40,3,65,3,75v0,31,-8,47,-24,47v-11,0,-45,-11,-101,-33","w":427},"+":{"d":"247,-62v-62,0,-74,-56,-68,-124r-57,0v-39,1,-67,-29,-67,-68v0,-62,57,-73,124,-67v-3,-67,-1,-124,68,-124v62,0,73,57,67,124v67,-5,124,4,124,67v0,69,-56,72,-124,68v5,67,-4,124,-67,124","w":439},",":{"d":"121,123v44,0,83,-39,83,-83r0,-123v1,-44,-39,-82,-83,-82v-44,0,-83,38,-83,82r0,123v-1,44,39,83,83,83","w":190},"-":{"d":"38,-310v0,44,39,83,83,83v44,0,83,-39,83,-83v0,-44,-39,-83,-83,-83v-44,0,-83,39,-83,83","w":190},"\u2010":{"d":"38,-310v0,44,39,83,83,83v44,0,83,-39,83,-83v0,-44,-39,-83,-83,-83v-44,0,-83,39,-83,83","w":190},".":{"d":"38,-83v0,46,37,83,83,83v46,0,83,-37,83,-83v0,-44,-39,-82,-83,-82v-44,0,-83,38,-83,82","w":190},"\/":{"d":"271,-730v17,-73,134,-52,131,20v0,9,-1,18,-4,25r-269,753v-18,72,-133,50,-131,-20v0,-10,1,-19,4,-26","w":361},"0":{"d":"54,-347v0,-195,163,-358,358,-358v195,0,358,163,358,358v0,195,-163,358,-358,358v-195,0,-358,-163,-358,-358xm635,-347v0,-122,-101,-223,-223,-223v-124,0,-223,99,-223,223v0,122,101,223,223,223v122,0,223,-101,223,-223","w":769},"1":{"d":"121,-705v39,0,69,28,68,67r0,580v1,39,-29,67,-68,67v-39,0,-68,-28,-67,-67r0,-580v-1,-39,28,-67,67,-67","w":189},"2":{"d":"309,-705v141,0,256,114,256,255v0,64,-26,126,-78,186v-29,34,-81,80,-154,138r164,0v39,-1,68,29,68,68v0,39,-29,68,-68,67r-376,0v-94,5,-96,-88,-35,-125v76,-47,200,-137,261,-196v55,-53,83,-99,83,-138v0,-65,-56,-120,-121,-120v-65,0,-122,55,-120,120v1,39,-29,68,-68,68v-39,0,-67,-29,-67,-68v0,-141,114,-255,255,-255"},"3":{"d":"122,-426v-39,0,-68,-29,-68,-68v0,-116,95,-211,211,-211v116,0,212,95,212,211v0,57,-20,106,-59,147v39,40,59,88,59,145v0,116,-96,211,-212,211r-144,0v-39,1,-68,-28,-68,-67v0,-39,29,-69,68,-68r144,0v66,4,103,-87,52,-131v-40,-34,-124,-17,-126,-93v-1,-41,34,-66,74,-67v41,0,77,-35,77,-77v0,-42,-35,-76,-77,-76v-40,0,-77,36,-76,75v1,39,-28,69,-67,69","w":480},"4":{"d":"418,9v-38,0,-69,-29,-68,-67r0,-138r-80,0v-120,3,-216,-96,-216,-216r0,-224v-1,-39,28,-68,67,-68v39,0,69,29,68,68r0,224v-1,44,37,81,81,81r80,0r0,-307v-1,-38,30,-67,68,-67v39,0,68,28,67,67r0,580v1,39,-28,67,-67,67","w":486},"5":{"d":"418,-705v39,-1,68,28,67,67v0,45,-22,68,-67,68r-229,0r0,68v182,-19,305,98,308,256v3,139,-117,259,-256,255r-120,0v-39,1,-67,-28,-67,-67v0,-39,28,-69,67,-68r120,0v65,2,121,-55,121,-120v0,-65,-56,-121,-121,-121r-120,0v-35,1,-67,-32,-67,-67r0,-204v-1,-35,32,-67,67,-67r297,0","w":497},"6":{"d":"191,-471v174,-92,374,43,374,226v0,141,-116,256,-256,256v-141,0,-255,-116,-255,-256r0,-205v-3,-141,114,-255,255,-255v73,0,133,27,185,78v44,43,7,118,-50,116v-18,0,-34,-7,-48,-22v-40,-45,-117,-50,-164,-9v-22,19,-36,42,-41,71xm309,-124v65,0,121,-56,121,-121v0,-65,-56,-120,-121,-120v-65,0,-120,55,-120,120v0,65,55,121,120,121","w":566},"7":{"d":"54,-638v0,-39,28,-68,67,-67r318,0v44,0,66,21,66,62v0,34,-19,105,-56,213r-136,393v-17,74,-135,53,-132,-19v0,-7,1,-15,4,-23r161,-491r-225,0v-39,1,-67,-29,-67,-68","w":505},"8":{"d":"344,-504v0,-36,-31,-67,-67,-67v-36,0,-66,31,-66,67v0,35,31,66,66,66v36,0,67,-30,67,-66xm277,-706v112,0,202,90,202,202v0,49,-16,92,-47,129v45,44,68,98,68,161v0,122,-101,223,-223,223v-122,0,-223,-101,-223,-223v0,-63,23,-117,68,-161v-31,-37,-46,-80,-46,-129v0,-111,90,-202,201,-202xm365,-214v0,-48,-40,-89,-88,-89v-48,0,-88,41,-88,89v0,47,41,88,88,88v48,0,88,-40,88,-88","w":501},"9":{"d":"125,-68v-43,-43,-7,-117,49,-115v18,0,34,7,48,22v42,45,117,50,164,9v22,-19,37,-42,42,-71v-175,92,-374,-43,-374,-227v0,-141,114,-255,255,-255v141,0,256,114,256,255r0,205v4,140,-116,256,-256,256v-73,0,-132,-28,-184,-79xm189,-450v0,65,55,121,120,121v65,0,121,-56,121,-121v0,-65,-56,-120,-121,-120v-65,0,-120,55,-120,120"},":":{"d":"38,-310v0,44,39,83,83,83v44,0,83,-39,83,-83v0,-44,-39,-83,-83,-83v-44,0,-83,39,-83,83xm38,-83v0,46,37,83,83,83v46,0,83,-37,83,-83v0,-44,-39,-82,-83,-82v-44,0,-83,38,-83,82","w":190},";":{"d":"38,-310v0,44,39,83,83,83v44,0,83,-39,83,-83v0,-44,-39,-83,-83,-83v-44,0,-83,39,-83,83xm121,123v44,0,83,-39,83,-83r0,-123v1,-44,-39,-82,-83,-82v-44,0,-83,38,-83,82r0,123v-1,44,39,83,83,83","w":190},"<":{"d":"269,-304v47,-40,7,-117,-48,-116v-18,0,-34,7,-48,21r-88,89v-39,41,-39,67,0,112v4,5,35,33,88,89v42,45,118,8,117,-48v-2,-45,-48,-69,-71,-97","w":290},"=":{"d":"55,-351v0,-39,28,-69,67,-68r249,0v39,-1,67,29,67,68v0,39,-28,68,-67,67r-249,0v-39,1,-67,-28,-67,-67xm55,-156v0,-39,28,-68,67,-67r249,0v39,-1,68,28,67,67v0,45,-22,68,-67,68r-249,0v-39,1,-67,-29,-67,-68","w":439},">":{"d":"76,-304v-47,-40,-7,-117,48,-116v18,0,34,7,48,21r88,89v39,41,39,67,0,112v-4,5,-35,33,-88,89v-42,45,-118,8,-117,-48v2,-45,48,-69,71,-97","w":290},"?":{"d":"121,-382v-39,0,-67,-29,-67,-68v0,-141,114,-255,255,-255v141,0,256,114,256,255v0,141,-116,260,-256,256r-79,0v-39,1,-67,-28,-67,-67v0,-39,28,-69,67,-68r79,0v65,2,121,-56,121,-121v0,-65,-56,-120,-121,-120v-65,0,-122,55,-120,120v1,39,-29,68,-68,68xm323,-79v0,-44,-39,-82,-83,-82v-44,0,-83,38,-83,82v0,46,37,83,83,83v46,0,83,-37,83,-83","w":500},"@":{"d":"54,-347v0,-195,163,-358,358,-358v195,0,358,163,358,358v0,195,-163,358,-358,358v-195,0,-358,-163,-358,-358xm461,-211v1,27,-22,48,-49,48v-100,0,-184,-84,-184,-184v0,-100,84,-184,184,-184v100,0,184,84,184,184r0,126v104,-146,-12,-349,-184,-349v-124,0,-223,99,-223,223v0,152,154,269,310,206r0,-206v1,-47,-40,-87,-87,-87v-47,0,-87,40,-87,87v0,47,40,88,87,87v33,0,49,16,49,49","w":769},"A":{"d":"717,162v0,39,-30,67,-72,67v-118,0,-215,-98,-215,-216r0,-237v-63,35,-186,56,-188,-38v-1,-39,28,-68,67,-67v65,2,121,-56,121,-121v0,-65,-56,-120,-121,-120v-65,0,-120,55,-120,120r0,392v1,39,-29,67,-68,67v-39,0,-68,-28,-67,-67r0,-392v-3,-141,114,-255,255,-255v141,0,256,114,256,255r0,463v0,46,36,83,85,81v39,-2,68,29,67,68"},"B":{"d":"122,9v-39,0,-69,-28,-68,-67r0,-436v-3,-116,95,-211,211,-211v116,0,212,95,212,211v0,57,-20,106,-59,147v39,40,59,88,59,145v0,116,-96,211,-212,211v-38,0,-67,-29,-67,-67v0,-40,28,-70,68,-68v64,2,102,-87,51,-131v-40,-34,-124,-17,-126,-93v-1,-41,34,-66,74,-67v41,0,77,-35,77,-77v0,-42,-35,-76,-77,-76v-40,0,-76,36,-76,76r0,436v1,39,-28,67,-67,67","w":477},"C":{"d":"480,-56v0,39,-29,67,-68,67v-195,0,-358,-163,-358,-358v0,-195,163,-358,358,-358v39,0,68,28,68,67v0,39,-29,69,-68,68v-122,-3,-223,101,-223,223v0,122,101,226,223,223v39,-1,68,29,68,68","w":479},"D":{"d":"203,-56v0,-39,28,-69,67,-68v122,3,223,-101,223,-223v0,-124,-99,-226,-223,-223r-81,0r0,512v1,39,-29,67,-68,67v-39,0,-68,-28,-67,-67r0,-580v-1,-35,32,-67,67,-67r149,0v196,-5,358,162,358,358v0,196,-162,358,-358,358v-39,0,-67,-28,-67,-67","w":629},"E":{"d":"480,-56v0,39,-29,67,-68,67v-195,0,-358,-163,-358,-358v0,-195,163,-358,358,-358v39,0,68,28,68,67v0,39,-29,69,-68,68v-103,0,-185,68,-211,151r211,0v39,-1,68,28,68,67v0,39,-29,69,-68,68r-214,0v23,87,109,160,214,160v39,-1,68,29,68,68","w":476},"F":{"d":"431,-327v0,39,-29,69,-68,68r-174,0r0,201v1,39,-29,67,-68,67v-39,0,-68,-28,-67,-67r0,-431v-3,-120,96,-219,216,-216r93,0v39,-1,68,28,68,67v0,39,-29,69,-68,68r-93,0v-44,-1,-81,37,-81,81r0,95r174,0v39,-1,68,28,68,67","w":432},"G":{"d":"422,-348v0,-39,28,-68,67,-67r214,0v35,-1,67,33,67,68v0,195,-163,358,-358,358v-195,0,-358,-163,-358,-358v0,-195,163,-358,358,-358v106,0,193,42,267,120v42,44,4,115,-51,113v-18,0,-34,-8,-49,-24v-44,-49,-100,-74,-167,-74v-124,0,-223,99,-223,223v0,122,101,223,223,223v105,0,189,-71,213,-156r-136,0v-39,1,-67,-29,-67,-68","w":766},"H":{"d":"753,162v0,41,-30,67,-74,67v-118,0,-216,-98,-216,-216r0,-322r-274,0r0,251v1,39,-29,67,-68,67v-39,0,-68,-28,-67,-67r0,-580v-1,-39,28,-67,67,-67v39,0,69,28,68,67r0,194r274,0r0,-194v-1,-39,28,-67,67,-67v39,0,69,28,68,67r0,651v0,46,37,83,87,81v39,-2,69,29,68,68","w":597},"I":{"d":"121,-705v39,0,69,28,68,67r0,580v1,39,-29,67,-68,67v-39,0,-68,-28,-67,-67r0,-580v-1,-39,28,-67,67,-67","w":189},"J":{"d":"427,-705v39,0,69,28,68,67r0,428v3,121,-100,221,-221,221v-121,0,-220,-100,-220,-221v0,-39,29,-67,68,-67v39,0,68,28,67,67v-1,47,38,86,85,86v47,0,86,-39,86,-86r0,-428v-1,-39,28,-67,67,-67","w":494},"K":{"d":"666,162v0,41,-28,67,-71,67v-120,0,-216,-96,-216,-216r0,-221v1,-43,-38,-80,-81,-80r-109,0r0,230v1,39,-29,67,-68,67v-39,0,-68,-28,-67,-67r0,-578v-1,-39,28,-68,67,-68v39,0,69,29,68,68r0,212v72,11,124,-19,124,-81v0,-38,29,-68,67,-67v92,2,76,125,35,183v66,43,99,103,99,181r0,221v0,45,37,81,85,81v45,0,67,23,67,68","w":514},"L":{"d":"381,-58v0,57,-48,67,-111,67v-120,0,-216,-96,-216,-216r0,-431v-1,-39,28,-67,67,-67v39,0,69,28,68,67r0,431v1,60,53,88,125,81v39,-4,67,29,67,68","w":381},"M":{"d":"850,229v-122,0,-220,-96,-220,-216r0,-502v4,-73,-103,-112,-144,-49r0,480v1,39,-29,67,-68,67v-39,0,-68,-28,-67,-67r0,-431v1,-43,-38,-81,-81,-81v-44,0,-81,37,-81,81r0,431v1,39,-28,67,-67,67v-39,0,-69,-28,-68,-67r0,-431v-3,-118,98,-216,216,-216v53,0,99,17,140,52v40,-35,87,-52,140,-52v118,0,215,98,215,216r0,502v0,45,37,83,85,81v39,-2,68,29,68,68v0,39,-29,67,-68,67","w":766},"N":{"d":"639,162v0,41,-29,67,-72,67v-120,0,-216,-96,-216,-216r-1,-502v1,-43,-37,-81,-80,-81v-44,0,-81,37,-81,81r0,431v1,39,-29,67,-68,67v-39,0,-68,-28,-67,-67r0,-431v-3,-118,98,-216,216,-216v109,0,215,94,215,204r1,514v0,45,37,83,85,81v39,-2,69,29,68,68","w":486},"O":{"d":"54,-347v0,-195,163,-358,358,-358v195,0,358,163,358,358v0,195,-163,358,-358,358v-195,0,-358,-163,-358,-358xm635,-347v0,-122,-101,-223,-223,-223v-124,0,-223,99,-223,223v0,122,101,223,223,223v122,0,223,-101,223,-223","w":769},"P":{"d":"242,-262v0,-39,28,-68,67,-67v65,2,121,-56,121,-121v0,-65,-56,-120,-121,-120v-65,0,-120,55,-120,120r0,392v1,39,-29,67,-68,67v-38,0,-68,-29,-67,-67r0,-392v-3,-141,114,-255,255,-255v141,0,256,114,256,255v0,141,-116,256,-256,256v-39,0,-67,-29,-67,-68"},"Q":{"d":"770,-347v0,176,-130,324,-285,350r1,171v1,38,-30,67,-68,67v-38,0,-68,-29,-67,-67r-1,-368v1,-42,-35,-82,-77,-81v-42,1,-71,-27,-71,-68v0,-39,29,-67,68,-67v118,0,218,98,215,216r0,58v83,-26,148,-108,150,-211v2,-122,-101,-223,-223,-223v-124,0,-223,99,-223,223v0,70,25,130,81,172v51,39,17,123,-43,121v-15,0,-29,-6,-43,-17v-87,-71,-130,-163,-130,-276v0,-195,163,-358,358,-358v195,0,358,163,358,358","w":768},"R":{"d":"565,-450v0,123,-86,221,-188,247v0,41,38,78,79,77v41,-1,69,27,69,68v0,39,-29,67,-68,67v-120,0,-218,-96,-215,-216r0,-55v-1,-35,32,-68,67,-67v65,2,121,-56,121,-121v0,-65,-56,-120,-121,-120v-65,0,-120,55,-120,120r0,392v1,39,-29,67,-68,67v-38,0,-68,-29,-67,-67r0,-392v-3,-141,114,-255,255,-255v141,0,256,114,256,255"},"S":{"d":"377,-705v60,0,88,73,51,115v-21,24,-74,15,-94,37v-11,13,-18,27,-18,44r1,323v3,107,-89,196,-196,196v-39,0,-67,-28,-67,-67v0,-39,28,-69,67,-68v34,1,62,-27,61,-61r-1,-323v-3,-108,89,-196,196,-196","w":444},"T":{"d":"507,-638v0,39,-29,69,-68,68r-93,0r0,512v1,39,-28,67,-67,67v-39,0,-69,-28,-68,-67r0,-512r-88,0v-39,1,-68,-29,-68,-68v0,-39,29,-68,68,-67r316,0v39,-1,68,28,68,67","w":507},"U":{"d":"121,-705v39,0,69,28,68,67r0,431v-1,44,37,81,81,81v44,0,80,-37,80,-81r0,-432v-1,-38,30,-68,68,-68v39,0,68,29,67,68r0,432v3,118,-97,216,-215,216v-120,0,-216,-96,-216,-216r0,-431v-1,-39,28,-67,67,-67","w":486},"V":{"d":"14,-616v-18,-48,22,-91,66,-90v31,0,51,15,62,46r137,396r137,-396v18,-73,135,-51,132,20v0,7,-2,15,-5,24r-200,580v-22,76,-102,75,-128,0","w":501},"W":{"d":"400,-705v-39,0,-69,28,-68,67r0,483v-43,58,-143,21,-143,-52r0,-431v1,-39,-28,-67,-67,-67v-39,0,-69,28,-68,67r0,431v-3,120,96,216,216,216v53,0,99,-17,139,-51v40,34,86,51,139,51v118,0,216,-98,216,-216r0,-431v1,-39,-29,-67,-68,-67v-39,0,-68,28,-67,67r0,431v1,44,-37,81,-81,81v-44,0,-81,-37,-81,-81r0,-431v1,-39,-28,-67,-67,-67","w":764},"X":{"d":"418,-705v39,0,68,28,67,67v0,125,13,226,-62,292v73,66,62,163,62,288v1,39,-28,67,-67,67v-38,0,-69,-29,-68,-67r0,-136v1,-43,-37,-81,-80,-81v-44,0,-81,37,-81,81r0,136v1,39,-29,67,-68,67v-39,0,-68,-28,-67,-67v0,-124,-11,-223,62,-288v-74,-66,-62,-166,-62,-292v-1,-39,28,-67,67,-67v39,0,69,28,68,67r0,141v-1,44,37,80,81,80v43,0,80,-37,80,-80r0,-141v-1,-38,30,-67,68,-67","w":486},"Y":{"d":"418,-705v39,0,68,28,67,67r0,431v3,118,-97,216,-215,216v-123,0,-216,-97,-216,-226v0,-39,28,-68,67,-67v43,0,71,30,68,77v-2,44,37,81,81,81v44,0,80,-37,80,-81r0,-96v-149,60,-301,-53,-296,-200r0,-135v-1,-39,28,-67,67,-67v39,0,69,28,68,67r0,135v-1,44,37,81,81,81v44,0,80,-37,80,-81r0,-135v-1,-38,30,-67,68,-67","w":486},"Z":{"d":"54,-638v0,-39,28,-68,67,-67r286,0v70,-4,87,52,58,101r-281,478r227,0v39,-1,67,29,67,68v0,39,-28,68,-67,67r-345,0v-58,4,-88,-52,-58,-102r281,-477r-168,0v-39,1,-67,-29,-67,-68","w":479},"[":{"d":"381,142v0,57,-48,67,-111,67v-118,0,-216,-98,-216,-216r0,-595v2,-133,107,-216,260,-216v39,0,67,29,67,68v0,57,-48,72,-111,67v-44,-3,-81,37,-81,81r0,595v1,60,53,88,125,81v39,-4,67,29,67,68","w":381},"\\":{"d":"129,-730v-17,-73,-134,-52,-131,20v0,9,1,18,4,25r269,753v18,72,133,50,131,-20v0,-10,-1,-19,-4,-26","w":361},"]":{"d":"53,142v0,56,48,67,112,67v118,0,216,-98,216,-216r0,-595v-2,-131,-108,-216,-260,-216v-39,0,-68,29,-68,68v0,56,49,72,112,67v43,-3,81,38,81,81r0,595v-1,60,-53,88,-125,81v-39,-4,-68,29,-68,68","w":381},"^":{"d":"272,-486v40,47,119,8,117,-48v0,-17,-7,-33,-21,-47r-90,-88v-46,-40,-64,-40,-111,0v-11,10,-40,41,-90,88v-45,42,-7,118,48,116v45,-1,68,-47,97,-70","w":389},"_":{"d":"57,-68v0,-39,29,-68,68,-67r375,0v39,-1,67,28,67,67v0,39,-28,69,-67,68r-375,0v-39,1,-68,-29,-68,-68","w":571},"`":{"d":"177,-421v61,0,104,-58,77,-115v-29,-61,-37,-164,-124,-164v-62,0,-102,58,-76,114v28,61,37,165,123,165","w":262},"a":{"d":"377,-57v0,39,-29,68,-68,68v-141,0,-255,-116,-255,-256v0,-141,114,-255,255,-255v141,0,256,114,256,255r0,187v1,39,-29,67,-68,67v-39,0,-68,-28,-67,-67r0,-187v2,-65,-56,-120,-121,-120v-65,0,-120,55,-120,120v0,65,55,123,120,121v39,-1,68,28,68,67"},"b":{"d":"242,-434v0,-39,28,-68,67,-68v141,0,256,116,256,256v0,139,-117,255,-256,255v-139,0,-255,-116,-255,-255r0,-392v-1,-38,29,-67,67,-67v39,0,69,28,68,67r0,392v-2,65,55,120,120,120v65,0,121,-55,121,-120v0,-65,-56,-123,-121,-121v-39,1,-67,-28,-67,-67"},"c":{"d":"377,-434v0,39,-29,68,-68,67v-65,-2,-120,56,-120,121v0,65,55,122,120,120v39,-1,68,29,68,68v0,39,-29,67,-68,67v-139,0,-255,-116,-255,-255v0,-141,114,-256,255,-256v39,0,68,29,68,68","w":377},"d":{"d":"377,-434v0,39,-29,68,-68,67v-65,-2,-120,56,-120,121v0,65,55,120,120,120v65,0,121,-55,121,-120r0,-392v-1,-38,29,-67,67,-67v39,0,69,28,68,67r0,392v4,139,-117,255,-256,255v-139,0,-255,-116,-255,-255v0,-141,114,-256,255,-256v39,0,68,29,68,68"},"e":{"d":"54,-245v0,-141,114,-255,255,-255v73,0,134,26,185,78v30,31,21,72,-9,101r-128,125v-42,47,-118,8,-116,-49v0,-17,7,-32,22,-47r72,-71v-82,-15,-145,45,-146,118v-1,65,55,121,120,121r89,0v39,-1,67,28,67,67v0,39,-28,69,-67,68r-89,0v-141,4,-255,-116,-255,-256","w":514},"f":{"d":"489,-278v0,39,-28,68,-67,67r-233,0r0,153v1,39,-29,67,-68,67v-39,0,-68,-28,-67,-67r0,-431v-3,-120,96,-216,216,-216v121,0,215,98,215,223v0,39,-28,69,-67,68v-40,0,-70,-31,-68,-75v2,-44,-36,-81,-80,-81v-44,0,-81,37,-81,81r0,143r233,0v39,-1,67,29,67,68","w":487},"g":{"d":"377,-57v0,39,-29,68,-68,68v-141,0,-255,-116,-255,-256v0,-141,114,-255,255,-255v141,0,255,114,255,255r0,241v3,92,-78,172,-169,170r-86,0v-65,-2,-120,56,-120,121v0,65,55,120,120,120v65,0,122,-55,120,-120v-1,-38,30,-68,68,-68v39,0,67,29,67,68v0,139,-116,255,-255,255v-139,0,-255,-116,-255,-255v0,-139,115,-256,254,-256v49,0,120,15,121,-35r0,-241v2,-65,-55,-120,-120,-120v-65,0,-120,55,-120,120v0,65,55,123,120,121v39,-1,68,28,68,67"},"h":{"d":"638,162v0,41,-28,67,-71,67v-119,0,-216,-97,-216,-216r-1,-298v1,-43,-37,-80,-80,-80v-44,0,-81,36,-81,80r0,227v1,39,-29,67,-68,67v-39,0,-68,-28,-67,-67r0,-580v-1,-39,28,-67,67,-67v39,0,69,28,68,67r0,153v150,-58,297,54,297,200r0,298v0,45,37,83,85,81v39,-2,68,29,67,68","w":486},"i":{"d":"54,-433v-1,-39,28,-68,67,-67v45,0,68,22,68,67r0,375v1,39,-29,67,-68,67v-39,0,-68,-28,-67,-67r0,-375xm204,-631v0,-44,-39,-83,-83,-83v-44,0,-83,39,-83,83v0,44,39,83,83,83v44,0,83,-39,83,-83","w":190},"j":{"d":"204,-631v0,-44,-39,-83,-83,-83v-44,0,-83,39,-83,83v0,44,39,83,83,83v44,0,83,-39,83,-83xm-99,162v0,41,29,67,72,67v118,0,216,-98,216,-216r0,-446v0,-45,-23,-67,-68,-67v-39,-1,-68,28,-67,67r0,446v0,45,-37,83,-85,81v-39,-2,-69,29,-68,68","w":189},"k":{"d":"623,162v0,41,-29,67,-72,67v-118,0,-219,-98,-216,-216r0,-118v1,-44,-37,-80,-81,-80r-65,0r0,127v1,39,-29,67,-68,67v-39,0,-68,-28,-67,-67r0,-578v-1,-39,28,-68,67,-68v39,0,69,29,68,68r0,283v67,11,123,-17,124,-78v0,-46,22,-69,67,-69v39,-1,69,28,68,67v0,61,-22,112,-66,155v91,62,92,154,88,291v-1,45,37,83,85,81v39,-2,69,29,68,68","w":470},"l":{"d":"54,-636v-1,-39,28,-68,67,-67v45,0,68,22,68,67r0,578v1,39,-29,67,-68,67v-39,0,-68,-28,-67,-67r0,-578","w":189},"m":{"d":"850,229v-122,0,-220,-96,-220,-216r0,-298v4,-73,-103,-110,-144,-49r0,276v1,39,-29,67,-68,67v-39,0,-68,-28,-67,-67r0,-227v1,-43,-38,-80,-81,-80v-44,0,-81,36,-81,80r0,227v1,39,-28,67,-67,67v-39,0,-69,-28,-68,-67r0,-227v-3,-118,98,-215,216,-215v53,0,99,17,140,51v40,-34,87,-51,140,-51v118,0,215,97,215,215r0,298v0,45,37,83,85,81v39,-2,68,29,68,68v0,39,-29,67,-68,67","w":766},"n":{"d":"639,162v0,41,-29,68,-72,67v-135,-3,-215,-107,-216,-263r-1,-251v1,-43,-37,-80,-80,-80v-44,0,-81,36,-81,80r0,227v1,39,-29,67,-68,67v-39,0,-68,-28,-67,-67r0,-227v-3,-118,98,-215,216,-215v118,0,216,97,216,215r0,298v0,45,37,83,85,81v39,-2,69,29,68,68","w":486},"o":{"d":"54,-245v0,-141,114,-255,255,-255v141,0,256,114,256,255v0,141,-116,256,-256,256v-141,0,-255,-116,-255,-256xm430,-245v0,-65,-56,-120,-121,-120v-65,0,-120,55,-120,120v0,65,55,121,120,121v65,0,121,-56,121,-121","w":566},"p":{"d":"242,-57v0,-39,28,-68,67,-67v65,2,121,-56,121,-121v0,-65,-56,-120,-121,-120v-65,0,-120,55,-120,120r0,391v1,39,-29,68,-68,68v-39,0,-68,-29,-67,-68r0,-391v-3,-141,114,-255,255,-255v141,0,256,114,256,255v0,141,-116,256,-256,256v-39,0,-67,-29,-67,-68"},"q":{"d":"377,-57v0,39,-29,68,-68,68v-141,0,-255,-116,-255,-256v0,-141,114,-255,255,-255v141,0,256,114,256,255r0,391v1,39,-29,68,-68,68v-39,0,-68,-29,-67,-68r0,-391v2,-65,-56,-120,-121,-120v-65,0,-120,55,-120,120v0,65,55,123,120,121v39,-1,68,28,68,67"},"r":{"d":"270,-500v38,0,68,29,67,67v0,41,-23,64,-69,68v-43,3,-80,34,-79,80r0,227v1,39,-29,67,-68,67v-39,0,-68,-28,-67,-67r0,-227v-3,-118,98,-215,216,-215","w":337},"s":{"d":"379,-500v60,0,88,73,50,114v-23,25,-71,16,-94,40v-30,33,-18,102,-18,158v0,106,-89,196,-196,196v-39,0,-67,-28,-67,-67v0,-39,28,-68,67,-68v41,0,60,-33,61,-81r1,-96v-3,-108,88,-196,196,-196","w":446},"t":{"d":"418,-283v41,0,67,31,67,76v0,118,-97,216,-215,216v-120,0,-216,-96,-216,-216r0,-344v-1,-39,28,-68,67,-68v60,0,75,54,68,121r229,0v39,-1,68,28,67,67v0,45,-22,68,-67,68r-229,0r0,156v-1,44,37,82,81,81v47,-1,83,-38,80,-90v-2,-38,30,-68,68,-67","w":486},"u":{"d":"121,-499v39,0,69,29,68,68r0,224v-1,44,37,81,81,81v44,0,80,-37,80,-81r0,-226v-1,-39,29,-67,68,-67v39,0,68,28,67,67r0,226v3,118,-97,216,-215,216v-120,0,-216,-96,-216,-216r0,-224v-1,-39,28,-68,67,-68","w":486},"v":{"d":"39,-409v-20,-48,20,-93,65,-92v29,0,50,15,61,44r82,212r82,-212v20,-71,133,-48,131,22v0,9,-2,17,-5,26r-145,375v-24,72,-99,71,-126,0","w":444},"w":{"d":"351,-435v-1,-39,28,-68,67,-67v45,0,68,22,68,67r0,276v42,60,144,25,144,-50r0,-226v-1,-39,29,-67,68,-67v39,0,68,28,67,67r0,226v3,118,-97,216,-215,216v-53,0,-100,-17,-140,-51v-41,34,-87,51,-140,51v-120,0,-216,-96,-216,-216r0,-226v0,-45,23,-67,68,-67v39,-1,68,28,67,67r0,226v-1,44,37,81,81,81v44,0,81,-37,81,-81r0,-226","w":766},"x":{"d":"418,-500v49,0,67,37,67,93v0,65,-24,118,-73,161v55,51,73,104,73,188v0,39,-28,68,-67,67v-47,-1,-73,-37,-68,-93v4,-42,-37,-82,-80,-81v-53,1,-86,44,-81,107v3,39,-29,68,-68,67v-49,0,-67,-37,-67,-93v0,-65,24,-119,73,-162v-55,-50,-73,-103,-73,-187v0,-39,28,-67,67,-67v55,0,71,35,68,93v-3,44,37,81,81,80v52,-1,86,-44,80,-106v-4,-39,29,-68,68,-67","w":487},"y":{"d":"265,94v53,1,92,-41,85,-100v-150,57,-296,-54,-296,-201r0,-226v-1,-39,28,-68,67,-67v45,0,68,22,68,67r0,226v-1,44,37,81,81,81v44,0,80,-37,80,-81r0,-226v-1,-39,29,-67,68,-67v39,0,68,28,67,67r0,446v2,120,-98,216,-220,216v-39,0,-68,-28,-68,-67v0,-39,29,-69,68,-68","w":486},"z":{"d":"54,-433v0,-39,28,-68,67,-67r278,0v48,0,72,15,72,44v0,94,-174,249,-239,330r136,0v39,-1,67,29,67,68v0,38,-29,68,-67,67r-280,0v-49,0,-73,-15,-73,-45v0,-94,174,-248,240,-329r-134,0v-38,1,-67,-30,-67,-68","w":437},"{":{"d":"381,142v0,57,-48,67,-111,67v-118,0,-216,-98,-216,-216r0,-595v2,-133,107,-216,260,-216v39,0,67,29,67,68v0,57,-48,72,-111,67v-44,-3,-81,37,-81,81r0,595v1,60,53,88,125,81v39,-4,67,29,67,68","w":381},"|":{"d":"121,-805v39,0,69,28,68,67r0,780v1,39,-29,67,-68,67v-39,0,-68,-28,-67,-67r0,-780v-1,-39,28,-67,67,-67","w":189},"}":{"d":"53,142v0,56,48,67,112,67v118,0,216,-98,216,-216r0,-595v-2,-131,-108,-216,-260,-216v-39,0,-68,29,-68,68v0,56,49,72,112,67v43,-3,81,38,81,81r0,595v-1,60,-53,88,-125,81v-39,-4,-68,29,-68,68","w":381},"~":{"d":"49,-612v12,-80,103,-117,180,-74r41,19v18,-11,32,-25,53,-25v36,0,72,33,70,69v-3,52,-68,92,-111,92v-27,0,-83,-25,-111,-37v-17,13,-33,25,-53,25v-35,0,-74,-35,-69,-69","w":393},"\u00a0":{"w":303}}});
