/*!
 * The following copyright notice may not be removed under any circumstances.
 * 
 * Copyright:
 * Converted by ALLTYPE
 */
Cufon.registerFont({"w":717,"face":{"font-family":"ArmyWide","font-weight":500,"font-stretch":"normal","units-per-em":"1000","panose-1":"0 0 0 0 0 0 0 0 0 0","ascent":"800","descent":"-200","x-height":"13","bbox":"-50 -851 1007.03 174","underline-thickness":"50","underline-position":"-55","unicode-range":"U+0020-U+007E"},"glyphs":{" ":{"w":347},"\u00a0":{"w":347},"!":{"d":"210,13v-60,0,-120,-38,-120,-93v-1,-56,60,-95,120,-95v60,0,118,39,118,95v1,55,-59,93,-118,93xm210,-679v90,0,147,80,116,173v-27,81,-68,158,-78,254v4,36,-35,45,-58,30v-17,-22,-10,-72,-24,-101v-21,-86,-77,-144,-83,-241v-4,-67,58,-115,127,-115","w":421},"\"":{"d":"81,-399r-30,-268r177,0r-30,268r-117,0xm313,-399r-30,-268r178,0r-30,268r-118,0","w":512},"#":{"d":"378,-667r-45,160r109,0r-19,69r-108,0r-57,204r108,0r-19,68r-107,0r-47,166r-108,0r46,-166r-133,0r18,-68r134,0r57,-204r-135,0r20,-69r134,0r44,-160r108,0xm638,-667r-43,160r133,0r-18,69r-134,0r-58,204r135,0r-20,68r-133,0r-47,166r-110,0r188,-667r107,0"},"$":{"d":"114,-386v-64,-148,72,-268,211,-278r0,-66r51,0r0,63v72,5,129,19,171,44v42,25,63,56,63,95v0,47,-44,74,-95,74v-74,0,-124,-76,-65,-125v9,-15,5,-21,-19,-29v-16,-5,-34,-7,-55,-7r0,134r-51,-22r0,-110v-52,6,-102,64,-60,107v109,113,376,78,376,297v0,139,-118,202,-265,210r0,73r-51,0r0,-73v-121,-4,-243,-49,-249,-150v-3,-48,50,-84,100,-84v61,0,121,57,84,115v-11,18,-34,22,-45,37v18,26,69,30,110,34r0,-154r51,20r0,132v67,2,132,-54,94,-115v-97,-93,-299,-90,-356,-222"},"%":{"d":"458,-135v0,-99,99,-151,207,-148r0,36v-61,10,-42,94,-42,159v0,39,9,53,42,60r0,35v-111,6,-207,-44,-207,-142xm737,-87v0,-63,21,-151,-41,-159r0,-37v111,-4,206,51,206,149v0,97,-95,147,-206,141r0,-36v32,-6,41,-21,41,-58xm693,-666r-405,666r-71,0r405,-666r71,0xm8,-524v0,-98,99,-152,207,-149r0,37v-60,10,-42,93,-42,158v0,39,9,53,42,60r0,35v-111,7,-207,-44,-207,-141xm287,-477v0,-63,21,-150,-41,-158r0,-38v111,-4,206,51,206,149v0,96,-97,150,-206,141r0,-36v32,-6,41,-21,41,-58","w":910},"&":{"d":"295,13v-153,6,-330,-124,-237,-269v32,-50,102,-91,170,-112r28,45v-18,18,-15,40,0,63r115,171v12,17,30,20,59,19r32,44v-46,24,-102,37,-167,39xm829,-42v22,20,-4,42,-36,42r-258,0r-279,-400v-18,-28,-33,-69,-33,-112v0,-111,145,-187,277,-166r0,60v-42,6,-45,58,-23,91r306,456v11,14,32,17,46,29xm755,-427v71,3,39,120,7,149v-10,9,-23,28,-37,37r-32,-47v26,-20,22,-74,-2,-93v-19,-32,31,-48,64,-46xm611,-549v0,-41,-27,-53,-58,-69r0,-55v88,7,162,103,102,185v-15,20,-36,37,-63,52r-29,-47v23,-17,48,-30,48,-66","w":870},"'":{"d":"81,-399r-30,-268r177,0r-30,268r-117,0","w":280},"(":{"d":"428,102v18,26,10,54,-22,55v-126,-50,-212,-162,-267,-284v-39,-87,-26,-229,15,-301v56,-99,129,-182,222,-241v40,-26,86,10,52,43v-103,160,-107,571,0,728","w":523},")":{"d":"95,-626v-22,-22,-9,-52,21,-54v131,53,223,168,274,303v33,87,15,217,-22,283v-55,98,-128,181,-221,240v-40,26,-86,-10,-52,-44v103,-160,103,-568,0,-728","w":523},"*":{"d":"332,-361v-18,82,-147,25,-157,-32v1,-20,18,-31,36,-37r134,-47xm373,-477v52,21,118,32,161,62v29,54,-43,86,-99,96v-71,-1,-48,-99,-62,-158xm335,-499r-158,28v-57,6,-59,-63,-31,-97v10,-35,64,-45,94,-18xm498,-598v61,-20,93,38,93,89v0,27,-35,42,-66,36r-142,-26v39,-32,70,-73,115,-99xm353,-679v61,-3,113,23,80,68r-73,98v-27,-39,-60,-72,-84,-114v-6,-42,33,-50,77,-52"},"+":{"d":"670,-365v0,32,17,83,-25,83r-217,-1r0,177v0,17,-7,21,-25,21r-90,-1v-17,1,-25,-3,-25,-19r0,-178r-217,0v-41,6,-25,-51,-25,-83v0,-15,8,-19,25,-19r217,-1r0,-176v0,-15,9,-19,25,-19r90,-1v17,2,25,4,25,21r0,175r217,0v18,2,25,4,25,21"},",":{"d":"205,-174v73,1,148,55,128,135v-23,92,-115,163,-222,180v-20,3,-39,-22,-22,-35v40,-30,102,-39,123,-87v-1,-14,-21,-11,-35,-13v-47,-5,-89,-39,-89,-87v-1,-55,58,-94,117,-93","w":417},"-":{"d":"287,-385v41,-2,25,54,25,88v0,17,-7,21,-25,21r-262,-1v-43,6,-19,-55,-25,-88v0,-15,8,-19,25,-19","w":312},".":{"d":"203,13v-59,0,-120,-38,-120,-93v0,-56,61,-95,120,-95v60,0,121,39,120,95v0,55,-60,93,-120,93","w":406},"\/":{"d":"448,-717r-348,794r-150,0r348,-794r150,0","w":415},"0":{"d":"335,8v-175,-13,-303,-154,-303,-341v0,-187,129,-327,303,-341r0,50v-37,11,-51,24,-52,70r0,442v1,46,15,59,52,70r0,50xm381,-675v174,16,302,154,302,342v0,187,-128,328,-302,341r0,-51v37,-10,50,-24,51,-68r0,-444v-1,-44,-14,-58,-51,-68r0,-52"},"1":{"d":"167,-27v0,-43,76,-9,76,-65r0,-458v7,-53,-36,-48,-69,-60v-23,-28,10,-43,48,-45r254,-12r0,574v-10,55,75,23,75,66v0,30,-39,27,-74,27r-255,0v-30,-1,-55,-3,-55,-27"},"2":{"d":"252,-177v98,0,189,24,278,24v51,0,48,-32,68,-57v22,-15,54,1,49,30v-19,118,-96,188,-235,188v-75,0,-162,-38,-245,-43v-37,-2,-51,28,-82,31v-17,1,-29,-11,-29,-27v0,-85,102,-146,196,-146xm373,-482v-4,-81,-5,-114,-51,-140r0,-53v152,-5,299,61,299,191v0,139,-142,187,-266,221v-50,14,-84,44,-145,50v-31,3,-52,12,-84,24v79,-103,255,-103,247,-293xm180,-421v-62,0,-123,-42,-120,-99v5,-100,107,-141,208,-153r0,51v-26,2,-52,23,-21,35v27,11,50,38,51,73v0,55,-58,93,-118,93"},"3":{"d":"221,-64v3,17,38,21,64,21r0,51v-73,-7,-130,-24,-171,-50v-41,-26,-61,-59,-61,-98v-1,-57,55,-96,115,-96v53,0,114,37,114,86v0,44,-39,63,-61,86xm467,-340v97,19,185,55,185,164v0,133,-154,191,-314,184r0,-52v43,-9,65,-22,65,-67v0,-84,34,-212,-68,-208v-37,1,-57,-24,-35,-45v19,-10,79,-6,88,-25v25,-31,15,-113,15,-167v0,-48,-24,-55,-65,-67r0,-52v150,-4,302,50,302,175v0,100,-84,139,-173,160xm187,-431v-90,0,-139,-95,-79,-161v40,-44,101,-70,177,-80r0,49v-24,6,-41,8,-45,27v15,31,56,30,56,79v0,50,-55,86,-109,86"},"4":{"d":"260,-27v0,-43,75,-10,75,-65r0,-450r108,-116v20,-14,64,-9,97,-9v26,0,29,3,30,28r0,435v39,4,107,-15,107,25v0,42,-68,21,-107,25r0,61v-10,55,75,23,75,66v0,30,-40,27,-74,27r-258,0v-30,-1,-53,-3,-53,-27xm73,-154v-58,12,-52,-53,-23,-74r236,-260r0,72r-191,212r191,0r0,50r-213,0"},"5":{"d":"402,-265v2,-60,-15,-74,-60,-91r0,-71v172,3,310,55,310,214v0,162,-138,221,-310,221r0,-55v83,-11,57,-129,60,-218xm236,-73v-4,21,31,24,55,27r0,52v-105,-2,-223,-55,-226,-145v-2,-58,56,-99,116,-99v72,0,139,63,95,130v-11,16,-27,23,-40,35xm139,-307v-25,1,-40,-13,-36,-41r15,-129r57,5r-10,102v38,-23,75,-45,126,-54r0,68v-58,8,-102,35,-152,49xm622,-674v-53,165,-280,193,-499,160r18,-161r219,19v92,-2,190,6,262,-18"},"6":{"d":"346,8v-179,-12,-297,-152,-296,-345v1,-165,91,-268,209,-318v31,-12,64,-18,101,-19r0,48v-41,11,-63,26,-63,72r0,446v0,51,8,56,49,66r0,50xm435,-273v4,-54,-57,-51,-89,-33r0,-56v40,-16,74,-27,126,-28v119,-1,236,79,210,204v-27,127,-133,194,-291,194r0,-51v28,-5,43,-16,44,-46r0,-184xm456,-593v1,-27,-25,-26,-50,-33r0,-49v108,1,230,54,234,146v5,114,-222,130,-228,14v-2,-40,35,-50,44,-78"},"7":{"d":"341,8v-102,0,-161,-97,-120,-196v45,-107,174,-175,234,-265v29,-4,55,-7,78,-18v-50,78,-106,189,-66,313v30,93,-35,166,-126,166xm382,-496v-90,-12,-256,-89,-252,42r-48,0r39,-208r45,0r-9,57v70,-73,221,-82,334,-40v19,7,40,10,60,11v26,1,29,-24,54,-25v11,0,24,9,22,20v-18,106,-111,161,-245,143"},"8":{"d":"337,-628v-64,17,-35,127,-40,203v-2,31,16,48,40,56r0,51v-27,11,-39,19,-40,54r0,166v0,34,13,49,40,56r0,50v-155,-3,-291,-29,-291,-171v0,-116,98,-159,201,-181v-90,-20,-177,-53,-177,-156v0,-128,129,-171,267,-174r0,46xm420,-424v0,-76,24,-187,-40,-204r0,-47v138,5,267,46,267,175v0,100,-87,137,-177,156v101,23,201,64,201,181v0,139,-138,170,-291,171r0,-51v27,-6,40,-22,40,-54r0,-168v0,-32,-14,-43,-40,-52r0,-53v25,-6,40,-24,40,-54"},"9":{"d":"271,-89v-24,26,11,50,41,49r0,48v-107,1,-231,-53,-235,-144v-5,-115,224,-130,229,-14v1,31,-20,45,-35,61xm420,-563v0,-49,-8,-54,-48,-63r0,-49v178,15,297,152,296,347v-1,164,-90,269,-209,318v-30,13,-64,17,-101,18r0,-49v38,-8,61,-28,62,-70r0,-452xm283,-394v-4,52,53,56,89,33r0,56v-39,17,-75,29,-127,30v-109,3,-217,-71,-212,-173v7,-148,129,-226,293,-226r0,47v-27,6,-42,17,-43,47r0,186"},":":{"d":"203,13v-59,0,-120,-38,-120,-93v0,-56,61,-95,120,-95v60,0,121,39,120,95v0,55,-60,93,-120,93xm203,-494v60,0,120,39,120,94v0,54,-62,94,-120,94v-59,0,-120,-40,-120,-94v0,-55,61,-94,120,-94","w":406},";":{"d":"205,-174v73,1,148,55,128,135v-23,92,-115,163,-222,180v-20,3,-39,-22,-22,-35v40,-30,102,-39,123,-87v-1,-14,-21,-11,-35,-13v-47,-5,-89,-39,-89,-87v-1,-55,58,-94,117,-93xm213,-494v60,0,120,39,120,95v0,54,-62,93,-120,93v-59,0,-120,-39,-120,-93v0,-56,61,-95,120,-95","w":417},"<":{"d":"576,-570r-296,149r296,162r0,183r-529,-291r0,-9r529,-263r0,69","w":625},"=":{"d":"645,-285v41,-3,25,51,25,84v0,18,-6,21,-25,21r-574,-1v-42,6,-25,-52,-25,-84v0,-15,8,-19,25,-19xm645,-487v42,-3,25,51,25,84v0,18,-6,21,-25,21r-574,-1v-42,6,-25,-52,-25,-84v0,-16,8,-19,25,-19"},">":{"d":"47,-145r298,-149r-298,-162r0,-183r529,291r0,9r-529,263r0,-69","w":625},"?":{"d":"270,13v-60,0,-120,-38,-120,-93v-1,-56,60,-95,120,-95v60,0,118,39,118,95v0,55,-58,93,-118,93xm366,-464v50,-37,53,-130,2,-160r0,-54v115,10,224,82,224,196v0,128,-128,201,-262,212v-36,3,-43,0,-45,32v-1,21,-8,30,-29,30v-21,0,-34,-9,-34,-29r0,-172v1,-24,10,-19,39,-21v43,-3,77,-14,105,-34xm83,-562v3,-84,129,-120,232,-118r0,54v-49,0,-17,39,-17,69v0,110,-218,97,-215,-5","w":675},"@":{"d":"466,-677v235,0,478,173,362,398v-33,64,-100,99,-187,112r14,-60v80,-13,132,-73,132,-162v0,-146,-157,-231,-319,-231v-229,0,-457,185,-344,407v57,113,173,169,351,169v84,0,154,-10,222,-27r24,52v-117,37,-306,45,-430,9v-144,-41,-262,-144,-266,-316v-5,-208,217,-351,441,-351xm345,-159v-82,0,-134,-73,-104,-159v34,-100,107,-193,243,-178v19,15,-4,47,-22,51v-55,29,-58,113,-77,177v-7,25,-3,51,22,52v15,1,19,5,19,20v0,28,-44,37,-81,37xm597,-273v-6,22,-10,54,23,48r-15,59v-74,20,-179,6,-154,-84r62,-225v3,-30,34,-25,65,-25r82,0","w":883},"A":{"d":"48,0v-43,6,-67,-36,-21,-51v53,-17,69,-36,88,-88r137,-403r31,101r-112,335v-7,56,66,40,77,83v-2,18,-21,23,-45,23r-155,0xm381,-25v1,-36,61,-17,47,-68r-20,-71r-170,0r17,-60r137,0r-112,-395r15,-48r246,0r169,574v3,37,36,39,58,55v15,25,-11,38,-42,38r-305,0v-21,0,-39,-7,-40,-25","w":773},"B":{"d":"50,-639v0,-27,34,-28,62,-28r273,0r0,667r-289,0v-26,0,-46,-5,-46,-26v0,-39,62,-14,62,-62r0,-490v7,-46,-61,-22,-62,-61xm517,-538v0,-49,-36,-69,-82,-75r0,-54v172,-6,348,19,348,162v0,112,-106,145,-210,161v114,15,222,50,222,170v0,163,-176,180,-360,174r0,-51v56,-1,81,-21,82,-75r0,-112v-1,-55,-28,-76,-82,-81r0,-52v96,8,81,-80,82,-167","w":837},"C":{"d":"386,13v-215,-1,-363,-124,-361,-335v2,-208,125,-313,298,-353v21,-4,41,-4,63,-5r0,59v-47,6,-70,34,-70,86r0,424v3,40,29,63,70,65r0,59xm633,-186v19,-15,60,-3,55,23v-16,89,-95,138,-174,165v-23,8,-49,10,-78,11r0,-60v83,-2,159,-54,182,-117v5,-11,10,-18,15,-22xm687,-446v4,33,-35,48,-58,30v-6,-5,-11,-13,-14,-24v-28,-93,-87,-164,-179,-181r0,-58v58,5,100,29,160,36v28,-3,24,-36,57,-36v22,0,34,10,34,31r0,202","w":730},"D":{"d":"50,-639v0,-27,34,-28,62,-28r273,0r0,667r-289,0v-26,0,-46,-5,-46,-26v0,-39,62,-14,62,-62r0,-490v7,-46,-61,-22,-62,-61xm505,-525v1,-57,-22,-77,-70,-87r0,-55v149,1,242,60,301,147v69,102,68,274,-4,374v-61,85,-145,150,-297,146r0,-53v57,-11,70,-21,70,-85r0,-387","w":810},"E":{"d":"50,-639v0,-27,34,-28,62,-28r273,0r0,667r-289,0v-26,0,-46,-5,-46,-26v0,-39,62,-14,62,-62r0,-490v7,-46,-61,-22,-62,-61xm630,-186v13,-29,71,-30,62,15r0,171r-256,0r0,-53v103,-9,160,-54,194,-133xm578,-246v9,53,-56,52,-65,12v-10,-44,-36,-65,-77,-77r0,-57v42,-17,63,-30,76,-71v6,-20,11,-34,36,-33v27,1,29,12,30,41r0,185xm683,-493v4,36,-51,40,-62,8v-27,-78,-88,-114,-185,-123r0,-59r247,0r0,174","w":733},"F":{"d":"50,-639v0,-27,34,-28,62,-28r273,0r0,574v-10,55,75,23,75,66v0,30,-40,27,-74,27r-290,0v-26,0,-46,-5,-46,-26v0,-39,62,-14,62,-62r0,-490v7,-46,-61,-22,-62,-61xm577,-246v7,40,-26,48,-51,34v-17,-18,-22,-61,-42,-74v-12,-13,-31,-18,-49,-25r0,-57v42,-17,64,-29,76,-71v6,-22,12,-33,36,-33v27,0,29,12,30,41r0,185xm682,-495v6,40,-51,41,-62,10v-26,-76,-89,-115,-185,-123r0,-59r247,0r0,172","w":707},"G":{"d":"357,13v-200,-16,-332,-135,-332,-337v0,-213,130,-342,343,-355r0,53v-35,6,-53,29,-53,69r0,454v1,40,11,51,42,62r0,54xm458,-246v7,-52,-75,-21,-75,-64v0,-30,42,-28,75,-28r224,0v32,2,51,2,51,29v0,33,-40,22,-40,62r0,165v-72,54,-164,92,-286,95r0,-55v82,-6,40,-127,51,-204xm671,-419v-49,0,-39,-60,-66,-87v-37,-66,-87,-118,-187,-121r0,-53v79,4,134,26,203,33v19,-7,25,-33,52,-32v24,0,32,8,32,32r0,190v0,24,-10,38,-34,38","w":775},"H":{"d":"452,-42v19,30,-14,42,-55,42r-289,0v-26,0,-46,-5,-46,-26v0,-39,63,-14,63,-62r0,-490v7,-46,-63,-22,-63,-61v0,-28,34,-28,63,-28r288,0v43,-6,62,44,20,53v-21,4,-36,10,-36,37r0,488v-6,39,39,30,55,47xm545,0v-36,5,-75,-11,-53,-41v14,-19,54,-6,54,-47r0,-223r-99,0r0,-54r99,0r0,-213v6,-46,-57,-21,-60,-61v-2,-28,31,-28,59,-28r290,0v25,3,46,5,46,28v0,39,-63,14,-63,62r0,488v-9,50,63,23,63,63v0,26,-33,27,-63,26r-273,0","w":943},"I":{"d":"447,-26v0,26,-32,27,-62,26r-289,0v-26,0,-46,-5,-46,-26v0,-39,62,-14,62,-62r0,-490v7,-46,-61,-22,-62,-61v0,-27,34,-28,62,-28r289,0v25,3,46,5,46,28v0,39,-62,13,-62,62r0,488v-9,50,62,24,62,63","w":497},"J":{"d":"576,-169v-3,144,-148,192,-315,182r0,-57v32,-10,41,-26,42,-66r0,-463v7,-54,-67,-20,-75,-64v2,-30,42,-29,75,-29r290,0v25,1,44,5,45,27v1,41,-62,13,-62,63r0,407xm163,-60v7,12,27,13,45,17r0,53v-108,-12,-200,-51,-208,-154v-5,-63,63,-109,130,-109v81,0,156,79,102,148v-14,18,-46,29,-69,45","w":672},"K":{"d":"452,-42v19,30,-14,42,-55,42r-289,0v-26,0,-46,-5,-46,-26v0,-39,63,-14,63,-62r0,-490v7,-46,-63,-22,-63,-61v0,-28,34,-28,63,-28r288,0v26,3,47,5,47,28v0,39,-63,14,-63,62r0,488v-6,39,39,30,55,47xm803,-667v46,-6,61,49,18,59v-86,19,-131,79,-183,135r187,394v10,24,37,26,55,41v11,26,-13,38,-43,38r-306,0v-25,0,-45,-6,-46,-27v-3,-32,58,-17,41,-59r-86,-210v-9,-25,4,-44,16,-58r154,-174v22,-25,11,-76,-22,-80v-15,-8,-42,-9,-42,-31v0,-21,17,-27,40,-27","w":917},"L":{"d":"460,-638v0,43,-75,9,-75,65r0,573r-289,0v-26,0,-46,-5,-46,-26v0,-39,62,-14,62,-62r0,-490v7,-46,-61,-22,-62,-61v0,-27,34,-28,62,-28r294,0v30,3,54,4,54,29xm605,-213v13,-27,60,-24,60,15r0,198r-235,0r0,-55v106,-5,141,-80,175,-158","w":665},"M":{"d":"50,-620v-23,-21,1,-46,35,-46r286,-1r120,274r52,-148r0,162r-141,379r-31,0r-243,-573v-7,-36,-52,-32,-78,-47xm92,0v-39,7,-63,-30,-26,-45v43,-17,67,-46,67,-101r0,-296r64,148v6,89,-24,203,48,234v18,8,43,15,46,37v-2,20,-21,23,-46,23r-153,0xm518,-27v0,-43,75,-9,75,-65r0,-575r290,0v25,3,45,5,45,28v0,40,-62,14,-62,62r0,488v-8,49,61,23,62,63v0,26,-31,27,-61,26r-295,0v-29,0,-54,-3,-54,-27","w":978},"N":{"d":"105,0v-40,6,-76,-26,-41,-44v41,-21,77,-43,76,-102r0,-350r63,87r0,262v0,59,32,84,78,100v9,6,16,11,16,23v0,23,-22,23,-52,24r-140,0xm58,-622v-19,-37,25,-44,69,-44r268,-1r325,451r0,216r-167,0r-413,-571v-15,-23,-38,-36,-68,-44v-6,-1,-10,-3,-14,-7xm763,-667v41,-6,69,34,34,50v-42,19,-77,43,-77,102r0,221r-64,-87v-4,-66,10,-153,-15,-197v-11,-20,-50,-32,-71,-49v-12,-26,9,-39,41,-39","w":838},"O":{"d":"371,-627v-38,12,-56,25,-56,69r0,436v1,55,12,71,56,82r0,53v-201,-9,-346,-140,-346,-345v0,-200,149,-343,346,-347r0,52xm477,-559v0,-44,-21,-55,-56,-68r0,-53v198,5,346,147,346,348v0,204,-146,336,-346,345r0,-54v42,-7,55,-31,56,-80r0,-438","w":792},"P":{"d":"50,-639v0,-27,34,-28,62,-28r273,0r0,574v-10,55,75,23,75,66v0,30,-40,27,-74,27r-290,0v-26,0,-46,-5,-46,-26v0,-39,62,-14,62,-62r0,-490v7,-46,-61,-22,-62,-61xm503,-385v0,-93,33,-228,-68,-229r0,-53v177,-3,335,42,335,205v0,161,-156,214,-335,208r0,-54v51,-10,68,-21,68,-77","w":795},"Q":{"d":"425,-680v198,5,348,147,346,348v0,131,-55,221,-136,276v26,26,86,19,120,6v10,1,20,10,20,21v-27,74,-198,81,-255,28v-32,6,-58,12,-95,14r0,-54v16,-1,24,-5,33,-13v-16,-14,-29,-30,-56,-34v-24,-4,-37,-4,-39,-25v6,-41,90,-32,118,-16r0,-430v-1,-43,-19,-57,-56,-67r0,-54xm375,-627v-37,13,-57,24,-57,69r0,436v1,55,13,71,57,82r0,53v-201,-9,-347,-140,-347,-345v0,-201,149,-343,347,-347r0,52","w":800},"R":{"d":"500,-543v0,-51,-25,-54,-68,-70r0,-54v162,1,336,14,336,171v0,114,-98,150,-198,170v78,7,141,24,178,69v29,34,13,93,17,149v13,41,35,-16,65,-10v12,3,26,12,27,26v-24,71,-90,104,-185,105v-101,1,-171,-45,-172,-139v0,-79,12,-168,-68,-167r0,-54v97,5,68,-112,68,-196xm385,-93v-9,55,75,23,75,66v0,30,-40,27,-74,27r-290,0v-26,0,-46,-5,-46,-26v0,-39,62,-14,62,-62r0,-490v7,-47,-62,-23,-62,-62v1,-26,34,-27,62,-27r273,0r0,574","w":873},"S":{"d":"350,-43v66,-8,118,-44,90,-109v-60,-67,-205,-82,-280,-129v-63,-40,-114,-88,-114,-176v0,-144,131,-219,286,-222r0,55v-57,7,-110,62,-66,110v67,73,225,77,305,142v49,39,86,79,86,155v0,144,-149,229,-307,230r0,-56xm146,-23v-35,-7,-35,30,-66,30v-23,0,-34,-17,-34,-42r0,-178v-2,-26,36,-41,56,-25v20,25,28,68,49,95v35,45,78,91,149,101r0,55v-61,0,-107,-27,-154,-36xm626,-475v3,30,-39,44,-60,26v-6,-5,-11,-14,-14,-27v-17,-76,-92,-131,-170,-148r0,-54v64,2,106,30,168,34v17,-8,20,-30,45,-30v23,0,31,14,31,39r0,160","w":703},"T":{"d":"160,-27v0,-43,75,-10,75,-65r0,-575r272,0r0,574v-10,55,76,23,76,66v0,30,-40,27,-75,27r-295,0v-29,0,-53,-3,-53,-27xm98,-464v-5,42,-73,41,-73,0r0,-203r160,0r0,60v-52,24,-79,78,-87,143xm717,-465v0,45,-70,40,-75,2v-9,-66,-33,-121,-85,-143r0,-61r160,0r0,202","w":742},"U":{"d":"375,-168v-2,77,9,109,73,118r0,63v-132,3,-265,-27,-317,-97v-19,-26,-29,-63,-29,-110r0,-384v7,-46,-61,-22,-62,-61v0,-27,34,-27,62,-28r289,0v26,2,46,5,46,28v0,39,-62,13,-62,62r0,409xm751,-667v40,-7,74,30,37,47v-39,18,-77,46,-77,101r0,317v-1,128,-91,201,-214,215r0,-64v87,-8,146,-60,146,-150r0,-319v1,-60,-40,-83,-83,-103v-22,-21,0,-43,38,-43","w":846},"V":{"d":"411,-638v-1,35,-63,22,-46,69r141,398r-58,171r-161,0r-223,-596v-10,-19,-49,-10,-48,-40v1,-25,27,-30,59,-30r271,-1v37,2,60,0,65,29xm693,-667v47,-8,72,38,30,51v-48,14,-80,45,-96,91r-97,284r-33,-92r70,-205v14,-42,-13,-71,-50,-76v-13,-2,-24,-12,-24,-24v0,-23,25,-28,52,-28","w":753},"W":{"d":"408,-640v0,34,-62,22,-47,66r114,337r-74,237r-133,0r-197,-580v-5,-35,-55,-22,-55,-57v0,-23,28,-29,57,-29r287,-1v28,2,48,3,48,27xm658,-667r148,445r-71,222r-133,0r-142,-429r72,-238r126,0xm963,-667v44,-7,61,35,23,48v-47,17,-67,38,-83,86r-75,232r-32,-99v16,-57,42,-109,50,-171v5,-42,-70,-32,-70,-71v0,-21,18,-24,42,-24","w":1026},"X":{"d":"413,-639v2,28,-52,25,-31,58r311,504v10,25,54,18,54,50v0,26,-23,27,-56,27r-286,0v-36,1,-59,1,-64,-27v7,-27,56,-28,30,-70r-300,-484v-10,-30,-55,-23,-60,-57v3,-28,24,-28,60,-28r284,-1v33,2,56,2,58,28xm210,-107v-27,57,62,41,62,80v0,25,-23,26,-54,27r-156,0v-30,4,-54,-19,-35,-40v31,-16,73,-29,95,-57r110,-141r33,55v-17,23,-43,52,-55,76xm680,-667v33,-4,54,35,20,47v-85,32,-124,112,-180,174r-34,-54v21,-27,70,-84,14,-109v-14,-7,-35,-10,-35,-31v0,-17,18,-26,37,-26","w":760},"Y":{"d":"363,-608v-15,7,-12,28,-5,41r144,261r0,213v-10,56,75,22,75,67v0,30,-40,25,-74,26r-295,0v-30,-1,-53,-3,-53,-27v0,-43,75,-10,75,-65r0,-166r-173,-329v-8,-29,-49,-23,-54,-54v2,-21,21,-25,47,-25r300,-1v43,-6,64,32,31,51xm698,-667v39,-6,61,39,24,51v-48,15,-73,45,-96,85r-101,179r-35,-64v23,-52,64,-88,73,-152v6,-48,-67,-32,-75,-70v2,-28,24,-28,59,-28","w":746},"Z":{"d":"628,-611r-337,611r-266,0r0,-49r338,-618r265,0r0,56xm563,-180v7,-34,65,-38,65,7r0,173r-285,0r28,-49v113,-19,151,-45,192,-131xm98,-469v-19,13,-52,4,-52,-23r0,-175r265,0r-31,56v-81,10,-148,53,-170,121v-3,10,-7,17,-12,21","w":653},"[":{"d":"435,110v0,37,-33,34,-83,34r-235,0v-18,-1,-20,0,-21,-17r0,-777v1,-16,4,-15,21,-16r235,-1v49,4,78,-3,83,34v-2,23,-15,26,-39,31v-66,14,-88,15,-88,84r0,514v2,69,22,70,88,84v24,5,39,7,39,30","w":490},"\\":{"d":"571,83r-156,0r-382,-833r157,0","w":625},"]":{"d":"55,-633v0,-38,35,-34,82,-34r236,0v17,2,19,1,20,18r0,776v-1,17,-2,16,-20,17r-236,0v-50,-2,-77,2,-82,-33v1,-22,16,-26,38,-31v67,-14,88,-14,88,-83r0,-516v-2,-69,-21,-69,-88,-83v-22,-5,-38,-9,-38,-31","w":490},"^":{"d":"577,-277r-186,-238r-203,238r-228,0r363,-423r12,0r328,423r-86,0","w":625},"_":{"d":"617,93r0,81r-611,0r0,-81r611,0","w":625},"`":{"d":"135,-851r141,2v10,2,16,10,22,17v30,40,67,75,94,118v-15,19,-79,10,-92,-6r-180,-111v-14,-11,7,-18,15,-20","w":625},"a":{"d":"48,0v-43,6,-67,-36,-21,-51v53,-17,69,-36,88,-88r137,-403r31,101r-112,335v-7,56,66,40,77,83v-2,18,-21,23,-45,23r-155,0xm381,-25v1,-36,61,-17,47,-68r-20,-71r-170,0r17,-60r137,0r-112,-395r15,-48r246,0r169,574v3,37,36,39,58,55v15,25,-11,38,-42,38r-305,0v-21,0,-39,-7,-40,-25","w":773},"b":{"d":"50,-639v0,-27,34,-28,62,-28r273,0r0,667r-289,0v-26,0,-46,-5,-46,-26v0,-39,62,-14,62,-62r0,-490v7,-46,-61,-22,-62,-61xm517,-538v0,-49,-36,-69,-82,-75r0,-54v172,-6,348,19,348,162v0,112,-106,145,-210,161v114,15,222,50,222,170v0,163,-176,180,-360,174r0,-51v56,-1,81,-21,82,-75r0,-112v-1,-55,-28,-76,-82,-81r0,-52v96,8,81,-80,82,-167","w":837},"c":{"d":"386,13v-215,-1,-363,-124,-361,-335v2,-208,125,-313,298,-353v21,-4,41,-4,63,-5r0,59v-47,6,-70,34,-70,86r0,424v3,40,29,63,70,65r0,59xm633,-186v19,-15,60,-3,55,23v-16,89,-95,138,-174,165v-23,8,-49,10,-78,11r0,-60v83,-2,159,-54,182,-117v5,-11,10,-18,15,-22xm687,-446v4,33,-35,48,-58,30v-6,-5,-11,-13,-14,-24v-28,-93,-87,-164,-179,-181r0,-58v58,5,100,29,160,36v28,-3,24,-36,57,-36v22,0,34,10,34,31r0,202","w":730},"d":{"d":"50,-639v0,-27,34,-28,62,-28r273,0r0,667r-289,0v-26,0,-46,-5,-46,-26v0,-39,62,-14,62,-62r0,-490v7,-46,-61,-22,-62,-61xm505,-525v1,-57,-22,-77,-70,-87r0,-55v149,1,242,60,301,147v69,102,68,274,-4,374v-61,85,-145,150,-297,146r0,-53v57,-11,70,-21,70,-85r0,-387","w":810},"e":{"d":"50,-639v0,-27,34,-28,62,-28r273,0r0,667r-289,0v-26,0,-46,-5,-46,-26v0,-39,62,-14,62,-62r0,-490v7,-46,-61,-22,-62,-61xm630,-186v13,-29,71,-30,62,15r0,171r-256,0r0,-53v103,-9,160,-54,194,-133xm578,-246v9,53,-56,52,-65,12v-10,-44,-36,-65,-77,-77r0,-57v42,-17,63,-30,76,-71v6,-20,11,-34,36,-33v27,1,29,12,30,41r0,185xm683,-493v4,36,-51,40,-62,8v-27,-78,-88,-114,-185,-123r0,-59r247,0r0,174","w":733},"f":{"d":"50,-639v0,-27,34,-28,62,-28r273,0r0,574v-10,55,75,23,75,66v0,30,-40,27,-74,27r-290,0v-26,0,-46,-5,-46,-26v0,-39,62,-14,62,-62r0,-490v7,-46,-61,-22,-62,-61xm577,-246v7,40,-26,48,-51,34v-17,-18,-22,-61,-42,-74v-12,-13,-31,-18,-49,-25r0,-57v42,-17,64,-29,76,-71v6,-22,12,-33,36,-33v27,0,29,12,30,41r0,185xm682,-495v6,40,-51,41,-62,10v-26,-76,-89,-115,-185,-123r0,-59r247,0r0,172","w":707},"g":{"d":"357,13v-200,-16,-332,-135,-332,-337v0,-213,130,-342,343,-355r0,53v-35,6,-53,29,-53,69r0,454v1,40,11,51,42,62r0,54xm458,-246v7,-52,-75,-21,-75,-64v0,-30,42,-28,75,-28r224,0v32,2,51,2,51,29v0,33,-40,22,-40,62r0,165v-72,54,-164,92,-286,95r0,-55v82,-6,40,-127,51,-204xm671,-419v-49,0,-39,-60,-66,-87v-37,-66,-87,-118,-187,-121r0,-53v79,4,134,26,203,33v19,-7,25,-33,52,-32v24,0,32,8,32,32r0,190v0,24,-10,38,-34,38","w":775},"h":{"d":"452,-42v19,30,-14,42,-55,42r-289,0v-26,0,-46,-5,-46,-26v0,-39,63,-14,63,-62r0,-490v7,-46,-63,-22,-63,-61v0,-28,34,-28,63,-28r288,0v43,-6,62,44,20,53v-21,4,-36,10,-36,37r0,488v-6,39,39,30,55,47xm545,0v-36,5,-75,-11,-53,-41v14,-19,54,-6,54,-47r0,-223r-99,0r0,-54r99,0r0,-213v6,-46,-57,-21,-60,-61v-2,-28,31,-28,59,-28r290,0v25,3,46,5,46,28v0,39,-63,14,-63,62r0,488v-9,50,63,23,63,63v0,26,-33,27,-63,26r-273,0","w":943},"i":{"d":"447,-26v0,26,-32,27,-62,26r-289,0v-26,0,-46,-5,-46,-26v0,-39,62,-14,62,-62r0,-490v7,-46,-61,-22,-62,-61v0,-27,34,-28,62,-28r289,0v25,3,46,5,46,28v0,39,-62,13,-62,62r0,488v-9,50,62,24,62,63","w":497},"j":{"d":"576,-169v-3,144,-148,192,-315,182r0,-57v32,-10,41,-26,42,-66r0,-463v7,-54,-67,-20,-75,-64v2,-30,42,-29,75,-29r290,0v25,1,44,5,45,27v1,41,-62,13,-62,63r0,407xm163,-60v7,12,27,13,45,17r0,53v-108,-12,-200,-51,-208,-154v-5,-63,63,-109,130,-109v81,0,156,79,102,148v-14,18,-46,29,-69,45","w":672},"k":{"d":"452,-42v19,30,-14,42,-55,42r-289,0v-26,0,-46,-5,-46,-26v0,-39,63,-14,63,-62r0,-490v7,-46,-63,-22,-63,-61v0,-28,34,-28,63,-28r288,0v26,3,47,5,47,28v0,39,-63,14,-63,62r0,488v-6,39,39,30,55,47xm803,-667v46,-6,61,49,18,59v-86,19,-131,79,-183,135r187,394v10,24,37,26,55,41v11,26,-13,38,-43,38r-306,0v-25,0,-45,-6,-46,-27v-3,-32,58,-17,41,-59r-86,-210v-9,-25,4,-44,16,-58r154,-174v22,-25,11,-76,-22,-80v-15,-8,-42,-9,-42,-31v0,-21,17,-27,40,-27","w":917},"l":{"d":"460,-638v0,43,-75,9,-75,65r0,573r-289,0v-26,0,-46,-5,-46,-26v0,-39,62,-14,62,-62r0,-490v7,-46,-61,-22,-62,-61v0,-27,34,-28,62,-28r294,0v30,3,54,4,54,29xm605,-213v13,-27,60,-24,60,15r0,198r-235,0r0,-55v106,-5,141,-80,175,-158","w":665},"m":{"d":"50,-620v-23,-21,1,-46,35,-46r286,-1r120,274r52,-148r0,162r-141,379r-31,0r-243,-573v-7,-36,-52,-32,-78,-47xm92,0v-39,7,-63,-30,-26,-45v43,-17,67,-46,67,-101r0,-296r64,148v6,89,-24,203,48,234v18,8,43,15,46,37v-2,20,-21,23,-46,23r-153,0xm518,-27v0,-43,75,-9,75,-65r0,-575r290,0v25,3,45,5,45,28v0,40,-62,14,-62,62r0,488v-8,49,61,23,62,63v0,26,-31,27,-61,26r-295,0v-29,0,-54,-3,-54,-27","w":978},"n":{"d":"105,0v-40,6,-76,-26,-41,-44v41,-21,77,-43,76,-102r0,-350r63,87r0,262v0,59,32,84,78,100v9,6,16,11,16,23v0,23,-22,23,-52,24r-140,0xm58,-622v-19,-37,25,-44,69,-44r268,-1r325,451r0,216r-167,0r-413,-571v-15,-23,-38,-36,-68,-44v-6,-1,-10,-3,-14,-7xm763,-667v41,-6,69,34,34,50v-42,19,-77,43,-77,102r0,221r-64,-87v-4,-66,10,-153,-15,-197v-11,-20,-50,-32,-71,-49v-12,-26,9,-39,41,-39","w":838},"o":{"d":"371,-627v-38,12,-56,25,-56,69r0,436v1,55,12,71,56,82r0,53v-201,-9,-346,-140,-346,-345v0,-200,149,-343,346,-347r0,52xm477,-559v0,-44,-21,-55,-56,-68r0,-53v198,5,346,147,346,348v0,204,-146,336,-346,345r0,-54v42,-7,55,-31,56,-80r0,-438","w":792},"p":{"d":"50,-639v0,-27,34,-28,62,-28r273,0r0,574v-10,55,75,23,75,66v0,30,-40,27,-74,27r-290,0v-26,0,-46,-5,-46,-26v0,-39,62,-14,62,-62r0,-490v7,-46,-61,-22,-62,-61xm503,-385v0,-93,33,-228,-68,-229r0,-53v177,-3,335,42,335,205v0,161,-156,214,-335,208r0,-54v51,-10,68,-21,68,-77","w":795},"q":{"d":"425,-680v198,5,348,147,346,348v0,131,-55,221,-136,276v26,26,86,19,120,6v10,1,20,10,20,21v-27,74,-198,81,-255,28v-32,6,-58,12,-95,14r0,-54v16,-1,24,-5,33,-13v-16,-14,-29,-30,-56,-34v-24,-4,-37,-4,-39,-25v6,-41,90,-32,118,-16r0,-430v-1,-43,-19,-57,-56,-67r0,-54xm375,-627v-37,13,-57,24,-57,69r0,436v1,55,13,71,57,82r0,53v-201,-9,-347,-140,-347,-345v0,-201,149,-343,347,-347r0,52","w":800},"r":{"d":"500,-543v0,-51,-25,-54,-68,-70r0,-54v162,1,336,14,336,171v0,114,-98,150,-198,170v78,7,141,24,178,69v29,34,13,93,17,149v13,41,35,-16,65,-10v12,3,26,12,27,26v-24,71,-90,104,-185,105v-101,1,-171,-45,-172,-139v0,-79,12,-168,-68,-167r0,-54v97,5,68,-112,68,-196xm385,-93v-9,55,75,23,75,66v0,30,-40,27,-74,27r-290,0v-26,0,-46,-5,-46,-26v0,-39,62,-14,62,-62r0,-490v7,-47,-62,-23,-62,-62v1,-26,34,-27,62,-27r273,0r0,574","w":873},"s":{"d":"350,-43v66,-8,118,-44,90,-109v-60,-67,-205,-82,-280,-129v-63,-40,-114,-88,-114,-176v0,-144,131,-219,286,-222r0,55v-57,7,-110,62,-66,110v67,73,225,77,305,142v49,39,86,79,86,155v0,144,-149,229,-307,230r0,-56xm146,-23v-35,-7,-35,30,-66,30v-23,0,-34,-17,-34,-42r0,-178v-2,-26,36,-41,56,-25v20,25,28,68,49,95v35,45,78,91,149,101r0,55v-61,0,-107,-27,-154,-36xm626,-475v3,30,-39,44,-60,26v-6,-5,-11,-14,-14,-27v-17,-76,-92,-131,-170,-148r0,-54v64,2,106,30,168,34v17,-8,20,-30,45,-30v23,0,31,14,31,39r0,160","w":703},"t":{"d":"160,-27v0,-43,75,-10,75,-65r0,-575r272,0r0,574v-10,55,76,23,76,66v0,30,-40,27,-75,27r-295,0v-29,0,-53,-3,-53,-27xm98,-464v-5,42,-73,41,-73,0r0,-203r160,0r0,60v-52,24,-79,78,-87,143xm717,-465v0,45,-70,40,-75,2v-9,-66,-33,-121,-85,-143r0,-61r160,0r0,202","w":742},"u":{"d":"375,-168v-2,77,9,109,73,118r0,63v-132,3,-265,-27,-317,-97v-19,-26,-29,-63,-29,-110r0,-384v7,-46,-61,-22,-62,-61v0,-27,34,-27,62,-28r289,0v26,2,46,5,46,28v0,39,-62,13,-62,62r0,409xm751,-667v40,-7,74,30,37,47v-39,18,-77,46,-77,101r0,317v-1,128,-91,201,-214,215r0,-64v87,-8,146,-60,146,-150r0,-319v1,-60,-40,-83,-83,-103v-22,-21,0,-43,38,-43","w":846},"v":{"d":"411,-638v-1,35,-63,22,-46,69r141,398r-58,171r-161,0r-223,-596v-10,-19,-49,-10,-48,-40v1,-25,27,-30,59,-30r271,-1v37,2,60,0,65,29xm693,-667v47,-8,72,38,30,51v-48,14,-80,45,-96,91r-97,284r-33,-92r70,-205v14,-42,-13,-71,-50,-76v-13,-2,-24,-12,-24,-24v0,-23,25,-28,52,-28","w":753},"w":{"d":"408,-640v0,34,-62,22,-47,66r114,337r-74,237r-133,0r-197,-580v-5,-35,-55,-22,-55,-57v0,-23,28,-29,57,-29r287,-1v28,2,48,3,48,27xm658,-667r148,445r-71,222r-133,0r-142,-429r72,-238r126,0xm963,-667v44,-7,61,35,23,48v-47,17,-67,38,-83,86r-75,232r-32,-99v16,-57,42,-109,50,-171v5,-42,-70,-32,-70,-71v0,-21,18,-24,42,-24","w":1026},"x":{"d":"413,-639v2,28,-52,25,-31,58r311,504v10,25,54,18,54,50v0,26,-23,27,-56,27r-286,0v-36,1,-59,1,-64,-27v7,-27,56,-28,30,-70r-300,-484v-10,-30,-55,-23,-60,-57v3,-28,24,-28,60,-28r284,-1v33,2,56,2,58,28xm210,-107v-27,57,62,41,62,80v0,25,-23,26,-54,27r-156,0v-30,4,-54,-19,-35,-40v31,-16,73,-29,95,-57r110,-141r33,55v-17,23,-43,52,-55,76xm680,-667v33,-4,54,35,20,47v-85,32,-124,112,-180,174r-34,-54v21,-27,70,-84,14,-109v-14,-7,-35,-10,-35,-31v0,-17,18,-26,37,-26","w":760},"y":{"d":"363,-608v-15,7,-12,28,-5,41r144,261r0,213v-10,56,75,22,75,67v0,30,-40,25,-74,26r-295,0v-30,-1,-53,-3,-53,-27v0,-43,75,-10,75,-65r0,-166r-173,-329v-8,-29,-49,-23,-54,-54v2,-21,21,-25,47,-25r300,-1v43,-6,64,32,31,51xm698,-667v39,-6,61,39,24,51v-48,15,-73,45,-96,85r-101,179r-35,-64v23,-52,64,-88,73,-152v6,-48,-67,-32,-75,-70v2,-28,24,-28,59,-28","w":746},"z":{"d":"628,-611r-337,611r-266,0r0,-49r338,-618r265,0r0,56xm563,-180v7,-34,65,-38,65,7r0,173r-285,0r28,-49v113,-19,151,-45,192,-131xm98,-469v-19,13,-52,4,-52,-23r0,-175r265,0r-31,56v-81,10,-148,53,-170,121v-3,10,-7,17,-12,21","w":653},"{":{"d":"377,-552v-9,66,-3,145,-6,217v-15,55,-61,62,-134,73v93,14,136,26,136,137v0,60,-14,149,17,181v12,23,110,12,110,54v0,50,-85,34,-142,34v-96,0,-168,-16,-182,-94v-8,-47,0,-155,-8,-212v8,-71,-63,-63,-111,-80v-21,-20,-2,-52,28,-47v51,-6,87,-18,83,-74v16,-101,-27,-249,66,-285v43,-17,138,-19,209,-19v32,0,55,6,57,34v-8,55,-113,14,-123,81","w":542},"|":{"d":"381,-666r0,833r-136,0r0,-833r136,0","w":625},"}":{"d":"371,-38v11,143,-46,187,-188,182v-52,-2,-136,17,-141,-33v13,-61,126,-5,126,-114r0,-121v-8,-112,41,-118,137,-137v-94,-11,-137,-27,-137,-135v0,-61,13,-149,-17,-182v-12,-24,-109,-11,-109,-55v0,-50,85,-34,141,-34v134,0,188,32,188,184v0,86,-26,201,86,195v32,-2,46,28,28,48v-44,17,-111,8,-112,79","w":542},"~":{"d":"337,-729v98,0,225,82,291,-5r32,15v-42,61,-96,133,-205,111v-68,-14,-185,-68,-240,-1v-12,14,-26,-2,-40,-7v41,-52,76,-113,162,-113","w":833}}});
