/*!
 * The following copyright notice may not be removed under any circumstances.
 * 
 * Copyright:
 * Copyright © 1998 by Matthew Welch. All Rights Reserved.
 * 
 * Trademark:
 * College™ Trademark of Matthew Welch
 */
Cufon.registerFont({"w":1000,"face":{"font-family":"College","font-weight":400,"font-stretch":"normal","units-per-em":"2048","panose-1":"2 11 114 0 0 0 0 0 0 0","ascent":"1700","descent":"-348","bbox":"100 -1400 1500 200","underline-thickness":"0","underline-position":"0","unicode-range":"U+0020-U+007A"},"glyphs":{" ":{"w":801},"!":{"d":"100,0r0,-200r200,0r0,200r-200,0xm150,-400r-50,-500r0,-500r200,0r0,500r-50,500r-100,0","w":400},"\"":{"d":"400,-1200r0,-200r200,0r0,200r-100,200r-100,0r100,-200r-100,0xm100,-1200r0,-200r200,0r0,200r-100,200r-100,0r100,-200r-100,0","w":700},"#":{"d":"300,-200r0,-200r-200,0r0,-200r200,0r0,-200r-200,0r0,-200r200,0r0,-200r200,0r0,200r200,0r0,-200r200,0r0,200r200,0r0,200r-200,0r0,200r200,0r0,200r-200,0r0,200r-200,0r0,-200r-200,0r0,200r-200,0xm500,-600r200,0r0,-200r-200,0r0,200","w":1200},"$":{"d":"400,0r0,-200r-140,0r-160,-160r0,-140r200,0r0,100r400,0r0,-200r-440,0r-160,-160r0,-280r160,-160r140,0r0,-200r200,0r0,200r140,0r160,160r0,140r-200,0r0,-100r-400,0r0,200r440,0r160,160r0,280r-160,160r-140,0r0,200r-200,0"},"'":{"d":"100,-1200r0,-200r200,0r0,200r-100,200r-100,0r100,-200r-100,0","w":400},"+":{"d":"400,-300r0,-300r-300,0r0,-200r300,0r0,-300r200,0r0,300r300,0r0,200r-300,0r0,300r-200,0"},",":{"d":"100,0r0,-200r200,0r0,200r-100,200r-100,0r100,-200r-100,0","w":400},"-":{"d":"100,-600r0,-200r800,0r0,200r-800,0"},".":{"d":"100,0r0,-200r200,0r0,200r-200,0","w":400},"0":{"d":"260,0r-160,-160r0,-1080r160,-160r480,0r160,160r0,1080r-160,160r-480,0xm300,-200r400,0r0,-1000r-400,0r0,1000"},"1":{"d":"200,0r0,-200r200,0r0,-852r-148,0r0,-148r148,-200r200,0r0,1200r200,0r0,200r-600,0"},"2":{"d":"100,0r0,-640r160,-160r440,0r0,-400r-400,0r0,100r-200,0r0,-140r160,-160r480,0r160,160r0,480r-160,160r-440,0r0,400r400,0r0,-100r200,0r0,300r-800,0"},"3":{"d":"100,-1100r0,-140r160,-160r480,0r160,160r0,480r-60,60r60,60r0,480r-160,160r-480,0r-160,-160r0,-140r200,0r0,100r400,0r0,-400r-200,0r0,-200r200,0r0,-400r-400,0r0,100r-200,0"},"4":{"d":"500,0r0,-200r100,0r0,-200r-500,0r0,-200r500,-800r200,0r0,800r100,0r0,200r-100,0r0,200r100,0r0,200r-400,0xm352,-600r248,0r0,-400"},"5":{"d":"100,-1400r800,0r0,200r-600,0r0,400r440,0r160,160r0,480r-160,160r-480,0r-160,-160r0,-140r200,0r0,100r400,0r0,-400r-440,0r-160,-160r0,-640"},"6":{"d":"900,-1100r-200,0r0,-100r-400,0r0,400r440,0r160,160r0,480r-160,160r-480,0r-160,-160r0,-1080r160,-160r480,0r160,160r0,140xm300,-200r400,0r0,-400r-400,0r0,400"},"7":{"d":"100,0r0,-200r148,0r396,-1000r-344,0r0,100r-200,0r0,-300r800,0r0,200r-412,1000r148,0r0,200r-536,0"},"8":{"d":"900,-760r-60,60r60,60r0,480r-160,160r-480,0r-160,-160r0,-480r60,-60r-60,-60r0,-480r160,-160r480,0r160,160r0,480xm300,-800r400,0r0,-400r-400,0r0,400xm300,-200r400,0r0,-400r-400,0r0,400"},"9":{"d":"100,-300r200,0r0,100r400,0r0,-400r-440,0r-160,-160r0,-480r160,-160r480,0r160,160r0,1080r-160,160r-480,0r-160,-160r0,-140xm700,-1200r-400,0r0,400r400,0r0,-400"},":":{"d":"100,0r0,-200r200,0r0,200r-200,0xm100,-600r0,-200r200,0r0,200r-200,0","w":400},";":{"d":"100,-600r0,-200r200,0r0,200r-200,0xm100,0r0,-200r200,0r0,200r-100,200r-100,0r100,-200r-100,0","w":400},"=":{"d":"100,-800r0,-200r800,0r0,200r-800,0xm100,-400r0,-200r800,0r0,200r-800,0"},"?":{"d":"100,-1000r0,-240r160,-160r480,0r160,160r0,480r-160,160r-140,0r0,200r-200,0r0,-240r160,-160r140,0r0,-400r-400,0r0,200r-200,0xm400,-200r200,0r0,200r-200,0r0,-200"},"A":{"d":"100,0r0,-200r100,0r300,-1200r200,0r300,1200r100,0r0,200r-400,0r0,-200r100,0r-50,-200r-300,0r-50,200r100,0r0,200r-400,0xm600,-1000r-100,400r200,0","w":1200},"B":{"d":"100,0r0,-200r100,0r0,-1000r-100,0r0,-200r740,0r160,160r0,480r-60,60r60,60r0,480r-160,160r-740,0xm400,-800r400,0r0,-400r-400,0r0,400xm400,-200r400,0r0,-400r-400,0r0,400","w":1100},"C":{"d":"260,0r-160,-160r0,-1080r160,-160r480,0r160,160r0,240r-200,0r0,-200r-400,0r0,1000r400,0r0,-200r200,0r0,240r-160,160r-480,0"},"D":{"d":"100,0r0,-200r100,0r0,-1000r-100,0r0,-200r740,0r160,160r0,1080r-160,160r-740,0xm400,-200r400,0r0,-1000r-400,0r0,1000","w":1100},"E":{"d":"100,0r0,-200r100,0r0,-1000r-100,0r0,-200r900,0r0,300r-200,0r0,-100r-400,0r0,400r200,0r0,-100r200,0r0,400r-200,0r0,-100r-200,0r0,400r400,0r0,-100r200,0r0,300r-900,0","w":1100},"F":{"d":"100,0r0,-200r100,0r0,-1000r-100,0r0,-200r900,0r0,300r-200,0r0,-100r-400,0r0,400r200,0r0,-100r200,0r0,400r-200,0r0,-100r-200,0r0,400r100,0r0,200r-400,0","w":1100},"G":{"d":"260,0r-160,-160r0,-1080r160,-160r480,0r160,160r0,240r-200,0r0,-200r-400,0r0,1000r400,0r0,-400r-200,0r0,-200r400,0r0,640r-160,160r-480,0"},"H":{"d":"100,0r0,-200r100,0r0,-1000r-100,0r0,-200r400,0r0,200r-100,0r0,400r400,0r0,-400r-100,0r0,-200r400,0r0,200r-100,0r0,1000r100,0r0,200r-400,0r0,-200r100,0r0,-400r-400,0r0,400r100,0r0,200r-400,0","w":1200},"I":{"d":"100,0r0,-200r100,0r0,-1000r-100,0r0,-200r400,0r0,200r-100,0r0,1000r100,0r0,200r-400,0","w":600},"J":{"d":"300,-400r0,200r400,0r0,-1000r-100,0r0,-200r400,0r0,200r-100,0r0,1040r-160,160r-480,0r-160,-160r0,-240r200,0","w":1100},"K":{"d":"100,0r0,-200r100,0r0,-1000r-100,0r0,-200r400,0r0,200r-100,0r0,400r400,-400r-100,0r0,-200r480,0r0,200r-100,0r-440,440r440,560r100,0r0,200r-444,0r0,-200r100,0r-336,-420r-100,100r0,320r100,0r0,200r-400,0","w":1280},"L":{"d":"100,0r0,-200r100,0r0,-1000r-100,0r0,-200r400,0r0,200r-100,0r0,1000r400,0r0,-100r200,0r0,300r-900,0","w":1100},"M":{"d":"100,0r0,-200r100,0r0,-1000r-100,0r0,-200r300,0r350,860r350,-860r300,0r0,200r-100,0r0,1000r100,0r0,200r-400,0r0,-200r100,0r0,-660r-350,860r-350,-860r0,660r100,0r0,200r-400,0","w":1500},"N":{"d":"100,0r0,-200r100,0r0,-1000r-100,0r0,-200r300,0r500,960r0,-760r-100,0r0,-200r400,0r0,200r-100,0r0,1200r-200,0r-500,-960r0,760r100,0r0,200r-400,0","w":1300},"O":{"d":"260,0r-160,-160r0,-1080r160,-160r480,0r160,160r0,1080r-160,160r-480,0xm300,-200r400,0r0,-1000r-400,0r0,1000"},"P":{"d":"100,0r0,-200r100,0r0,-1000r-100,0r0,-200r740,0r160,160r0,480r-160,160r-440,0r0,400r100,0r0,200r-400,0xm400,-800r400,0r0,-400r-400,0r0,400","w":1100},"Q":{"d":"260,0r-160,-160r0,-1080r160,-160r480,0r160,160r0,1080r-160,160r-140,0r0,100r-200,0r0,-100r-140,0xm300,-200r100,0r0,-100r200,0r0,100r100,0r0,-1000r-400,0r0,1000"},"R":{"d":"100,0r0,-200r100,0r0,-1000r-100,0r0,-200r740,0r160,160r0,480r-60,60r60,60r0,440r100,0r0,200r-400,0r0,-200r100,0r0,-400r-400,0r0,400r100,0r0,200r-400,0xm400,-800r400,0r0,-400r-400,0r0,400","w":1200},"S":{"d":"100,-300r200,0r0,100r400,0r0,-400r-440,0r-160,-160r0,-480r160,-160r480,0r160,160r0,140r-200,0r0,-100r-400,0r0,400r440,0r160,160r0,480r-160,160r-480,0r-160,-160r0,-140"},"T":{"d":"400,0r0,-200r100,0r0,-1000r-200,0r0,100r-200,0r0,-300r1000,0r0,300r-200,0r0,-100r-200,0r0,1000r100,0r0,200r-400,0","w":1200},"U":{"d":"100,-1400r400,0r0,200r-100,0r0,1000r400,0r0,-1000r-100,0r0,-200r400,0r0,200r-100,0r0,1040r-160,160r-480,0r-160,-160r0,-1040r-100,0r0,-200","w":1200},"V":{"d":"100,-1400r400,0r0,200r-100,0r200,800r200,-800r-100,0r0,-200r400,0r0,200r-100,0r-300,1200r-200,0r-300,-1200r-100,0r0,-200","w":1200},"W":{"d":"100,-1200r0,-200r400,0r0,200r-100,0r140,700r260,-520r260,520r140,-700r-100,0r0,-200r400,0r0,200r-100,0r-200,1000r100,0r0,200r-400,0r0,-200r100,0r-200,-400r-200,400r100,0r0,200r-400,0r0,-200r100,0r-200,-1000r-100,0","w":1600},"X":{"d":"100,-1200r0,-200r400,0r0,200r-100,0r200,333r200,-333r-100,0r0,-200r400,0r0,200r-100,0r-300,500r300,500r100,0r0,200r-400,0r0,-200r100,0r-200,-333r-200,333r100,0r0,200r-400,0r0,-200r100,0r300,-500r-300,-500r-100,0","w":1200},"Y":{"d":"100,-1200r0,-200r400,0r0,200r-100,0r200,333r200,-333r-100,0r0,-200r400,0r0,200r-100,0r-300,500r0,500r100,0r0,200r-400,0r0,-200r100,0r0,-500r-300,-500r-100,0","w":1200},"Z":{"d":"100,-1100r0,-300r1000,0r0,200r-740,1000r540,0r0,-100r200,0r0,300r-1000,0r0,-200r740,-1000r-540,0r0,100r-200,0","w":1200},"a":{"d":"100,0r350,-1400r200,0r350,1400r-200,0r-100,-400r-300,0r-100,400r-200,0xm550,-1000r-100,400r200,0","w":1100},"b":{"d":"100,0r0,-1400r640,0r160,160r0,480r-60,60r60,60r0,480r-160,160r-640,0xm300,-800r400,0r0,-400r-400,0r0,400xm300,-200r400,0r0,-400r-400,0r0,400"},"d":{"d":"100,0r0,-1400r640,0r160,160r0,1080r-160,160r-640,0xm300,-200r400,0r0,-1000r-400,0r0,1000"},"e":{"d":"100,0r0,-1400r800,0r0,200r-600,0r0,400r400,0r0,200r-400,0r0,400r600,0r0,200r-800,0"},"f":{"d":"100,0r0,-1400r800,0r0,200r-600,0r0,400r400,0r0,200r-400,0r0,600r-200,0"},"h":{"d":"100,0r0,-1400r200,0r0,600r400,0r0,-600r200,0r0,1400r-200,0r0,-600r-400,0r0,600r-200,0"},"i":{"d":"100,0r0,-1400r200,0r0,1400r-200,0","w":400},"j":{"d":"300,-400r0,200r400,0r0,-1200r200,0r0,1240r-160,160r-480,0r-160,-160r0,-240r200,0"},"k":{"d":"100,0r0,-1400r200,0r0,552r552,-552r248,0r-560,560r560,840r-244,0r-456,-700r-100,100r0,600r-200,0","w":1200},"l":{"d":"100,0r0,-1400r200,0r0,1200r600,0r0,200r-800,0"},"m":{"d":"100,0r0,-1400r200,0r350,860r350,-860r200,0r0,1400r-200,0r0,-860r-350,860r-350,-860r0,860r-200,0","w":1300},"n":{"d":"100,0r0,-1400r200,0r500,960r0,-960r200,0r0,1400r-200,0r-500,-960r0,960r-200,0","w":1100},"p":{"d":"100,0r0,-1400r640,0r160,160r0,480r-160,160r-440,0r0,600r-200,0xm300,-800r400,0r0,-400r-400,0r0,400"},"r":{"d":"100,0r0,-1400r640,0r160,160r0,480r-60,60r60,60r0,640r-200,0r0,-600r-400,0r0,600r-200,0xm300,-800r400,0r0,-400r-400,0r0,400"},"t":{"d":"400,0r0,-1200r-300,0r0,-200r800,0r0,200r-300,0r0,1200r-200,0"},"u":{"d":"100,-1400r200,0r0,1200r400,0r0,-1200r200,0r0,1240r-160,160r-480,0r-160,-160r0,-1240"},"v":{"d":"100,-1400r200,0r250,1000r250,-1000r200,0r-350,1400r-200,0","w":1100},"w":{"d":"100,-1400r200,0r200,1000r200,-800r200,0r200,800r200,-1000r200,0r-300,1400r-200,0r-200,-800r-200,800r-200,0","w":1600},"x":{"d":"100,-1400r200,0r300,525r300,-525r200,0r-400,700r400,700r-200,0r-300,-525r-300,525r-200,0r400,-700","w":1200},"y":{"d":"100,-1400r200,0r300,525r300,-525r200,0r-400,700r0,700r-200,0r0,-700","w":1200},"z":{"d":"100,-1200r0,-200r800,0r0,200r-540,1000r540,0r0,200r-800,0r0,-200r540,-1000r-540,0"},"c":{"d":"260,0r-160,-160r0,-1080r160,-160r480,0r160,160r0,240r-200,0r0,-200r-400,0r0,1000r400,0r0,-200r200,0r0,240r-160,160r-480,0"},"g":{"d":"260,0r-160,-160r0,-1080r160,-160r480,0r160,160r0,240r-200,0r0,-200r-400,0r0,1000r400,0r0,-400r-200,0r0,-200r400,0r0,640r-160,160r-480,0"},"o":{"d":"260,0r-160,-160r0,-1080r160,-160r480,0r160,160r0,1080r-160,160r-480,0xm300,-200r400,0r0,-1000r-400,0r0,1000"},"q":{"d":"260,0r-160,-160r0,-1080r160,-160r480,0r160,160r0,1080r-160,160r-140,0r0,100r-200,0r0,-100r-140,0xm300,-200r100,0r0,-100r200,0r0,100r100,0r0,-1000r-400,0r0,1000"},"s":{"d":"100,-300r200,0r0,100r400,0r0,-400r-440,0r-160,-160r0,-480r160,-160r480,0r160,160r0,140r-200,0r0,-100r-400,0r0,400r440,0r160,160r0,480r-160,160r-480,0r-160,-160r0,-140"},"\u00a0":{"w":801}}});
