/*!
 * The following copyright notice may not be removed under any circumstances.
 * 
 * Copyright:
 * Copyright 1995 by Tony Lynch.  All Rights Reserved.
 */
Cufon.registerFont({"w":2048,"face":{"font-family":"ESP","font-weight":400,"font-stretch":"normal","units-per-em":"2560","panose-1":"2 11 6 3 5 3 2 2 2 4","ascent":"2048","descent":"-512","bbox":"-11.2832 -2305 2048 380","underline-thickness":"256","underline-position":"-128","unicode-range":"U+0020-U+007E"},"glyphs":{" ":{"w":1536},"!":{"d":"505,-1694v7,83,8,495,1,571v-18,200,-69,355,-249,355v-179,0,-232,-157,-250,-354v-7,-80,-8,-497,-1,-571v18,-199,70,-355,251,-355v178,0,230,157,248,354xm257,-512v138,0,256,119,256,256v0,138,-119,256,-256,256v-138,0,-256,-119,-256,-256v0,-138,119,-256,256,-256","w":768},"\"":{"d":"896,-2048v157,0,256,209,256,384v0,174,-99,380,-256,380v-156,0,-256,-208,-256,-380v0,-175,101,-384,256,-384xm256,-2048v157,0,256,209,256,384v0,174,-99,380,-256,380v-156,0,-256,-208,-256,-380v0,-175,101,-384,256,-384","w":1408},"#":{"d":"1792,-256r-256,0r0,256r-512,0r0,-256r-256,0r0,256r-512,0r0,-256r-256,0r0,-512r256,0r0,-512r-256,0r0,-512r256,2r0,-258r512,0r0,258r256,0r0,-258r512,0r0,256r256,2r0,510r-256,0r0,512r256,0r0,512xm1024,-768r0,-512r-256,0r0,512r256,0"},"$":{"d":"1792,-1536r-1792,0v0,-116,5,-198,18,-246v54,-203,219,-264,494,-266r129,0r0,-257r511,0r0,257v316,-8,566,23,621,265v12,51,19,133,19,247xm1792,-768v0,151,8,403,-18,502v-54,203,-219,264,-494,266r-128,0r0,252r-511,0r0,-252v-317,8,-567,-23,-622,-265v-12,-51,-19,-133,-19,-247r1280,0r0,-248r-768,0v-274,-2,-438,-66,-493,-271v-14,-51,-19,-134,-19,-249r1280,0v276,2,437,61,493,265v14,50,19,133,19,247"},"%":{"d":"1920,-1793r-1536,1793r-256,-257r1536,-1791xm512,-2048v275,0,512,237,512,512v0,274,-238,511,-512,511v-275,0,-512,-235,-512,-511v0,-275,237,-512,512,-512xm1535,-1025v276,0,513,237,513,513v0,275,-237,512,-513,512v-275,0,-513,-236,-513,-512v0,-276,237,-513,513,-513xm512,-1317v118,0,219,-101,219,-219v0,-118,-101,-219,-219,-219v-118,0,-219,101,-219,219v0,118,101,219,219,219xm1535,-293v118,0,219,-101,219,-219v0,-118,-101,-219,-219,-219v-118,0,-219,101,-219,219v0,118,101,219,219,219","w":2304},"&":{"d":"1792,-1280r-512,0r0,-256r-1280,0v0,-116,5,-198,18,-246v54,-203,219,-264,494,-266r129,0r0,-257r511,0r0,257v316,-8,565,23,621,265v24,103,17,351,19,503xm512,0v-395,-6,-512,-116,-512,-512r0,-768r1025,0r0,512r-513,0r0,256r768,0r0,-256r512,0v-1,151,8,403,-18,502v-54,203,-219,264,-494,266r-128,0r0,252r-511,0r0,-252r-129,0"},"'":{"d":"256,-2048v157,0,256,209,256,384v0,174,-99,380,-256,380v-156,0,-256,-208,-256,-380v0,-175,101,-384,256,-384","w":768},"(":{"d":"768,0v-223,1,-498,10,-616,-75v-127,-92,-152,-196,-152,-437r0,-1024v0,-116,5,-198,18,-246v54,-203,219,-264,494,-266r256,0r0,512r-256,0r0,1024r256,0r0,512","w":1024},")":{"d":"768,-512v0,116,-5,198,-18,246v-54,203,-219,264,-494,266r-256,0r0,-512r256,0r0,-1024r-256,0r0,-512v223,-1,498,-10,616,75v127,92,152,196,152,437r0,1024","w":1024},"*":{"d":"1024,-1407r-191,0r127,127r-192,192r-127,-127r0,192r-257,0r0,-188r-127,123r-192,-192r127,-127r-192,0r0,-257r192,0r-127,-127r192,-193r127,128r0,-192r257,0r0,192r127,-128r192,193r-127,127r191,0r0,257","w":1280},"+":{"d":"1280,-768r-384,0r0,382r-512,2r0,-384r-384,0r0,-512r384,0r0,-384r512,4r0,380r384,0r0,512","w":1536},",":{"d":"256,-384v157,0,256,209,256,384v0,174,-99,380,-256,380v-156,0,-256,-208,-256,-380v0,-175,101,-384,256,-384","w":768},"-":{"d":"1280,-768r-1280,0r0,-512r1280,0r0,512","w":1536},".":{"d":"256,-512v138,0,256,119,256,256v0,138,-119,256,-256,256v-138,0,-256,-119,-256,-256v0,-138,119,-256,256,-256","w":768},"\/":{"d":"1792,-1792r-1536,1792r-256,-256r1536,-1792"},"0":{"d":"1280,-2048v387,5,513,124,513,512r0,1024v-6,390,-122,512,-513,512r-768,0v-393,-6,-512,-119,-512,-512r0,-768r512,0r0,512r513,-768r-1025,0v6,-391,118,-512,512,-512r768,0xm1025,-512v268,-9,255,9,255,-256r0,-512r-512,768r257,0"},"1":{"d":"0,-1536v-11,-245,267,-512,512,-512r512,0r0,512r-1024,0xm1024,0r-512,0r0,-1280r512,0r0,1280","w":1280},"2":{"d":"1792,0r-1792,0r0,-512r1280,-1024r-1280,0v0,-116,5,-198,18,-246v54,-203,219,-266,494,-266r768,0v276,2,435,62,493,265v20,71,20,270,19,394r-1024,877r1024,0r0,512"},"3":{"d":"1792,-512v0,115,-5,198,-18,246v-54,205,-218,266,-494,266r-768,0v-276,-2,-438,-61,-493,-265v-28,-102,-17,-351,-19,-503r512,0r1,256r767,0r0,-256r-512,0r0,-512r512,0r0,-256r-1280,0v0,-113,5,-196,19,-246v55,-204,220,-266,494,-266r767,0v276,2,437,61,493,265v14,50,19,133,19,247r0,1024"},"4":{"d":"512,-1536r-512,0r0,-512r512,0r0,512xm1784,-768r-248,0r0,768r-512,0r0,-768r-1024,0r0,-512r1024,0r0,-768r512,0r0,768r248,0r0,512"},"5":{"d":"1792,-1536r-1792,0r0,-512r1792,0r0,512xm1792,-768v0,151,8,403,-18,502v-54,203,-219,266,-494,266r-1280,0r0,-512r1280,0r0,-256r-1280,0r0,-512r1280,0v276,2,437,61,493,265v14,50,19,133,19,247"},"6":{"d":"1792,-1536r-1792,0v0,-116,5,-198,18,-246v54,-203,219,-266,494,-266r768,0v276,2,437,61,493,265v14,50,19,133,19,247xm1792,-768v0,151,8,403,-18,502v-54,203,-219,266,-494,266r-768,0v-276,-2,-438,-61,-493,-265v-28,-102,-19,-351,-19,-503r0,-512r1280,0v276,2,437,61,493,265v14,50,19,133,19,247xm1280,-512r0,-256r-768,0r0,256r768,0"},"7":{"d":"1793,-1536r-641,1536r-640,0r642,-1536r-1154,0r0,-512r1793,0r0,512"},"8":{"d":"1782,-759v12,91,14,414,-8,493v-57,204,-218,266,-494,266r-768,0v-276,-2,-436,-61,-493,-265v-35,-127,-18,-683,13,-695v21,-43,96,-64,224,-64v-202,-10,-259,-44,-256,-256r1272,0r0,-256r-1272,0v0,-116,5,-198,18,-246v54,-203,219,-266,494,-266r768,0v276,2,434,62,493,265v23,78,21,407,10,493v-21,164,-81,262,-247,266v166,3,225,100,246,265xm1280,-512r0,-256r-768,0r0,256r768,0"},"9":{"d":"1792,-512v0,116,-5,198,-18,246v-54,203,-219,266,-494,266r-768,0v-276,-2,-437,-61,-493,-265v-14,-50,-19,-133,-19,-247r1280,0r0,-256r-768,0v-276,-2,-437,-61,-493,-265v-14,-50,-19,-133,-19,-247r1280,0r0,-256r-1280,0v0,-116,5,-198,18,-246v54,-203,219,-266,494,-266r768,0v276,2,437,61,493,265v14,50,19,133,19,247r0,1024"},":":{"d":"257,-1664v138,0,256,119,256,256v0,138,-119,256,-256,256v-138,0,-256,-119,-256,-256v0,-138,119,-256,256,-256xm257,-896v138,0,256,119,256,256v0,138,-119,256,-256,256v-138,0,-256,-119,-256,-256v0,-138,119,-256,256,-256","w":768},";":{"d":"257,-1664v138,0,256,119,256,256v0,138,-119,256,-256,256v-138,0,-256,-119,-256,-256v0,-138,119,-256,256,-256xm257,-896v157,0,256,209,256,384v0,174,-99,380,-256,380v-156,0,-256,-208,-256,-380v0,-175,101,-384,256,-384","w":768},"<":{"d":"1793,0r-1793,-1025r1793,-1023r0,512r-897,511r897,513r0,512"},"=":{"d":"1280,-1152r-1280,0r0,-512r1280,0r0,512xm1280,-384r-1280,0r0,-512r1280,0r0,512","w":1536},">":{"d":"1793,-1025r-1793,1025r0,-512r896,-513r-896,-511r0,-512"},"?":{"d":"1792,-1536v0,151,8,403,-18,502v-54,203,-219,266,-494,266r-640,0v-11,-351,65,-505,384,-512r256,0r0,-256r-1280,0v0,-116,5,-198,18,-246v54,-203,219,-266,494,-266r768,0v276,2,437,61,493,265v14,50,19,133,19,247xm896,-512v138,0,256,119,256,256v0,138,-119,256,-256,256v-138,0,-256,-119,-256,-256v0,-138,119,-256,256,-256"},"@":{"d":"1792,-1536v0,151,8,403,-18,502v-54,203,-219,266,-494,266r-480,0r0,-512r480,0r0,-256r-1280,0v0,-116,5,-198,18,-246v54,-203,219,-266,494,-266r768,0v276,2,437,61,493,265v14,50,19,133,19,247xm1792,0r-1280,0v-276,-2,-437,-61,-493,-265v-14,-50,-19,-133,-19,-247r0,-768r512,0r0,768r1280,0r0,512"},"A":{"d":"1792,0r-512,0r0,-768r-768,0r0,768r-512,0r0,-1280r1280,0r0,-256r-1280,0v0,-116,5,-198,18,-246v54,-203,219,-266,494,-266r768,0v276,2,437,61,493,265v14,50,19,133,19,247r0,1536"},"B":{"d":"1778,-759v17,84,18,415,-4,493v-57,202,-219,266,-494,266r-1280,0r0,-1280r1280,0r0,-256r-1280,0r0,-512r1280,0v276,2,435,62,493,265v24,82,22,406,5,493v-37,187,-148,264,-370,266v222,1,332,79,370,265xm1280,-512r0,-256r-768,0r0,256r768,0"},"C":{"d":"1792,-1280r-512,0r0,-256r-1280,0v0,-116,5,-198,18,-246v54,-203,219,-266,494,-266r768,0v276,2,438,61,493,265v28,102,17,351,19,503xm1792,-768v-1,151,8,403,-18,502v-54,203,-219,266,-494,266r-768,0v-276,-2,-437,-61,-493,-265v-14,-50,-19,-133,-19,-247r0,-768r512,0r0,768r768,0r0,-256r512,0"},"D":{"d":"1792,-512v0,116,-5,198,-18,246v-54,203,-219,266,-494,266r-1280,0r0,-1293r512,0r0,781r768,0r0,-1024r-1280,0r0,-512r1280,0v276,2,437,61,493,265v14,50,19,133,19,247r0,1024"},"E":{"d":"1792,-1536r-1792,0r0,-512r1792,0r0,512xm1792,0r-1792,0r0,-1280r1280,0r0,512r-768,0r0,256r1280,0r0,512"},"F":{"d":"1792,-1536r-1792,0r0,-512r1792,0r0,512xm1280,-768r-768,0r0,768r-512,0r0,-1280r1280,0r0,512"},"G":{"d":"1792,-1536r-1792,0v0,-116,5,-198,18,-246v54,-203,219,-266,494,-266r768,0v276,2,437,61,493,265v14,50,19,133,19,247xm1792,-768v0,151,8,403,-18,502v-54,203,-219,266,-494,266r-768,0v-276,-2,-437,-61,-493,-265v-14,-50,-19,-133,-19,-247r0,-768r512,0r0,768r768,0r0,-256r-512,0r0,-512r512,0v276,2,437,61,493,265v14,50,19,133,19,247"},"H":{"d":"512,-1536r-512,0r0,-512r512,0r0,512xm1792,0r-512,0r0,-768r-768,0r0,768r-512,0r0,-1280r1280,0r0,-768r512,0r0,2048"},"I":{"d":"512,-1536r-512,0r0,-512r512,0r0,512xm512,0r-512,0r0,-1280r512,0r0,1280","w":768},"J":{"d":"1792,-512v0,116,-5,198,-18,246v-54,203,-219,266,-494,266r-768,0v-276,-2,-438,-61,-493,-265v-28,-102,-17,-351,-19,-503r512,0r0,256r768,0r0,-1536r512,0r0,1536"},"K":{"d":"512,-1536r-512,0r0,-512r512,0r0,512xm1792,0r-640,0r-640,-832r0,832r-512,0r0,-1280r512,0r640,-768r640,0r-832,1024"},"L":{"d":"512,-1536r-512,0r0,-512r512,0r0,512xm1792,0r-1792,0r0,-1280r512,0r0,768r1280,0r0,512"},"M":{"d":"2048,0r-512,0r0,-1536r-256,0r0,1280r-512,0r0,-1280r-768,0v0,-116,5,-198,18,-246v54,-203,219,-266,494,-266r1024,0v275,3,438,53,493,254v14,50,19,137,19,258r0,1536xm512,0r-512,0r0,-1280r512,0r0,1280","w":2266},"N":{"d":"1792,0r-512,0r0,-1536r-1280,0r0,-512r1280,0v276,2,437,61,493,265v14,50,19,133,19,247r0,1536xm512,0r-512,0r0,-1280r512,0r0,1280"},"O":{"d":"1792,-512v0,116,-5,198,-18,246v-54,203,-219,266,-494,266r-768,0v-276,-2,-437,-61,-493,-265v-14,-50,-19,-133,-19,-247r0,-768r512,0r0,768r768,0r0,-1024r-1280,0v0,-116,5,-198,18,-246v54,-203,219,-266,494,-266r768,0v276,2,437,61,493,265v14,50,19,133,19,247r0,1024"},"P":{"d":"1792,-1280v0,129,-5,218,-18,266v-56,200,-217,246,-494,246r-768,0r0,768r-512,0r0,-1280r1280,0r0,-256r-1280,0r0,-512r1280,0v276,2,438,61,493,265v28,102,19,351,19,503"},"Q":{"d":"512,0v-395,-6,-512,-116,-512,-512r0,-768r512,0r0,768r768,0r0,-1024r-1280,0v0,-116,5,-198,18,-246v54,-203,219,-266,494,-266r768,0v276,2,437,61,493,265v14,50,19,133,19,247r0,1800r-512,0r0,-264r-768,0"},"R":{"d":"1280,-2048v315,-5,513,200,512,512v-1,153,10,399,-18,502v-55,204,-220,263,-494,266r0,256r512,0r0,512r-512,0v-276,-2,-438,-61,-493,-265v-28,-102,-17,-351,-19,-503r-256,0r0,768r-512,0r0,-1280r1280,0r0,-256r-1280,0r0,-512r1280,0"},"S":{"d":"0,-1536v0,-326,184,-512,512,-512r768,0v276,2,437,61,493,265v14,50,19,133,19,247r-1792,0xm1792,-768v0,151,8,403,-18,502v-54,203,-219,266,-494,266r-768,0v-276,-2,-437,-61,-493,-265v-14,-50,-19,-133,-19,-247r1280,0r0,-256r-768,0v-276,-2,-437,-61,-493,-265v-14,-50,-19,-133,-19,-247r1280,0v276,2,437,61,493,265v14,50,19,133,19,247"},"T":{"d":"1792,-1536r-640,0r0,1536r-512,0r-2,-1536r-638,0r0,-512r1792,0r0,512"},"U":{"d":"512,-1536r-512,0r0,-512r512,0r0,512xm1792,-512v0,116,-5,198,-18,246v-54,203,-219,266,-494,266r-768,0v-276,-2,-437,-61,-493,-265v-14,-50,-19,-133,-19,-247r0,-768r512,0r0,768r768,0r0,-1536r512,0r0,1536","w":2025},"V":{"d":"512,-1536r-512,0r0,-512r512,0r0,512xm1792,-768r-768,768r-256,0r-768,-768r0,-512r512,0r0,384r384,384r384,-384r0,-1152r512,0r0,1280"},"W":{"d":"512,-1536r-512,0r0,-512r512,0r0,512xm2048,-512v0,116,-5,198,-18,246v-54,203,-219,266,-494,266r-1024,0v-276,-2,-437,-61,-493,-265v-14,-50,-19,-133,-19,-247r0,-768r512,0r0,768r256,0r0,-1280r512,0r0,1280r256,0r0,-1536r512,0r0,1536","w":2266},"X":{"d":"512,-1536r-512,0r0,-512r512,0r0,512xm1792,0r-512,0r0,-512r-384,-256r-384,256r0,512r-512,0r0,-512r18,-132v55,-228,223,-382,494,-380v-237,0,-414,-50,-493,-189v-7,-22,-13,-44,-19,-67r896,0r384,-256r0,-512r512,0r0,512r-18,132v-55,228,-223,382,-494,380v275,3,445,51,493,254v43,183,14,537,19,770"},"Y":{"d":"512,-1536r-512,0r0,-512r512,0r0,512xm1792,-1280v0,116,-5,198,-18,246v-54,203,-219,264,-494,266r-128,0r0,768r-511,0r0,-768v-317,8,-567,-23,-622,-265v-12,-51,-19,-133,-19,-247r1280,0r0,-768r512,0r0,768"},"Z":{"d":"1792,0r-1792,0r0,-512r1152,-1024r-1152,0r0,-512r1792,0r0,512r-1151,1024r1151,0r0,512"},"[":{"d":"768,0r-768,0r0,-2048r768,0r0,512r-256,0r0,1024r256,0r0,512","w":1024},"\\":{"d":"1792,-256r-256,256r-1536,-1792r256,-256"},"]":{"d":"768,0r-768,0r0,-512r257,0r0,-1024r-257,0r0,-512r768,0r0,2048","w":1024},"^":{"d":"1792,-1280r-640,0r-256,-256r-256,256r-640,0r896,-768"},"_":{"d":"2048,256r-2048,0r0,-256r2048,0r0,256"},"`":{"d":"0,-1664v-36,-171,12,-384,175,-384v164,0,307,224,337,384v33,174,-12,381,-175,380v-166,-1,-303,-218,-337,-380","w":768},"a":{"d":"1792,0r-512,0r0,-768r-768,0r0,768r-512,0r0,-1280r1280,0r0,-256r-1280,0v0,-116,5,-198,18,-246v54,-203,219,-266,494,-266r768,0v276,2,437,61,493,265v14,50,19,133,19,247r0,1536"},"b":{"d":"1778,-759v17,84,18,415,-4,493v-57,202,-219,266,-494,266r-1280,0r0,-1280r1280,0r0,-256r-1280,0r0,-512r1280,0v276,2,435,62,493,265v24,82,22,406,5,493v-37,187,-148,264,-370,266v222,1,332,79,370,265xm1280,-512r0,-256r-768,0r0,256r768,0"},"c":{"d":"1792,-1280r-512,0r0,-256r-1280,0v0,-116,5,-198,18,-246v54,-203,219,-266,494,-266r768,0v276,2,438,61,493,265v28,102,17,351,19,503xm1792,-768v-1,151,8,403,-18,502v-54,203,-219,266,-494,266r-768,0v-276,-2,-437,-61,-493,-265v-14,-50,-19,-133,-19,-247r0,-768r512,0r0,768r768,0r0,-256r512,0"},"d":{"d":"1792,-512v0,116,-5,198,-18,246v-54,203,-219,266,-494,266r-1280,0r0,-1293r512,0r0,781r768,0r0,-1024r-1280,0r0,-512r1280,0v276,2,437,61,493,265v14,50,19,133,19,247r0,1024"},"e":{"d":"1792,-1536r-1792,0r0,-512r1792,0r0,512xm1792,0r-1792,0r0,-1280r1280,0r0,512r-768,0r0,256r1280,0r0,512"},"f":{"d":"1792,-1536r-1792,0r0,-512r1792,0r0,512xm1280,-768r-768,0r0,768r-512,0r0,-1280r1280,0r0,512"},"g":{"d":"1792,-1536r-1792,0v0,-116,5,-198,18,-246v54,-203,219,-266,494,-266r768,0v276,2,437,61,493,265v14,50,19,133,19,247xm1792,-768v0,151,8,403,-18,502v-54,203,-219,266,-494,266r-768,0v-276,-2,-437,-61,-493,-265v-14,-50,-19,-133,-19,-247r0,-768r512,0r0,768r768,0r0,-256r-512,0r0,-512r512,0v276,2,437,61,493,265v14,50,19,133,19,247"},"h":{"d":"512,-1536r-512,0r0,-512r512,0r0,512xm1792,0r-512,0r0,-768r-768,0r0,768r-512,0r0,-1280r1280,0r0,-768r512,0r0,2048"},"i":{"d":"512,-1536r-512,0r0,-512r512,0r0,512xm512,0r-512,0r0,-1280r512,0r0,1280","w":768},"j":{"d":"1792,-512v0,116,-5,198,-18,246v-54,203,-219,266,-494,266r-768,0v-276,-2,-438,-61,-493,-265v-28,-102,-17,-351,-19,-503r512,0r0,256r768,0r0,-1536r512,0r0,1536"},"k":{"d":"512,-1536r-512,0r0,-512r512,0r0,512xm1792,0r-640,0r-640,-832r0,832r-512,0r0,-1280r512,0r640,-768r640,0r-832,1024"},"l":{"d":"512,-1536r-512,0r0,-512r512,0r0,512xm1792,0r-1792,0r0,-1280r512,0r0,768r1280,0r0,512"},"m":{"d":"2048,0r-512,0r0,-1536r-256,0r0,1280r-512,0r0,-1280r-768,0v0,-116,5,-198,18,-246v54,-203,219,-266,494,-266r1024,0v275,3,438,53,493,254v14,50,19,137,19,258r0,1536xm512,0r-512,0r0,-1280r512,0r0,1280","w":2266},"n":{"d":"1792,0r-512,0r0,-1536r-1280,0r0,-512r1280,0v276,2,437,61,493,265v14,50,19,133,19,247r0,1536xm512,0r-512,0r0,-1280r512,0r0,1280"},"o":{"d":"1792,-512v0,116,-5,198,-18,246v-54,203,-219,266,-494,266r-768,0v-276,-2,-437,-61,-493,-265v-14,-50,-19,-133,-19,-247r0,-768r512,0r0,768r768,0r0,-1024r-1280,0v0,-116,5,-198,18,-246v54,-203,219,-266,494,-266r768,0v276,2,437,61,493,265v14,50,19,133,19,247r0,1024"},"p":{"d":"1792,-1280v0,129,-5,218,-18,266v-56,200,-217,246,-494,246r-768,0r0,768r-512,0r0,-1280r1280,0r0,-256r-1280,0r0,-512r1280,0v276,2,438,61,493,265v28,102,19,351,19,503"},"q":{"d":"1280,-1400v-1,-82,-43,-136,-128,-136r-1152,0v0,-116,5,-198,18,-246v54,-203,219,-266,494,-266r768,0v276,2,437,61,493,265v14,50,19,133,19,247r0,1800r-512,0r0,-264r-768,0v-395,-6,-512,-116,-512,-512r0,-768r512,0r0,640v1,79,45,128,128,128r512,0v83,-8,128,-49,128,-128r0,-760"},"r":{"d":"1280,-2048v315,-5,513,200,512,512r1,256v11,352,-66,500,-385,512v-84,3,-128,49,-128,128v0,79,45,128,128,128r384,0r0,512r-512,0v-276,-2,-435,-62,-493,-265v-19,-66,-19,-254,-19,-375v0,-84,-49,-128,-128,-128v-79,0,-128,45,-128,128r0,640r-512,0r0,-1280r1152,0v83,-8,128,-49,128,-128v0,-79,-45,-128,-128,-128r-1152,0r0,-512r1280,0"},"s":{"d":"0,-1536v0,-326,184,-512,512,-512r768,0v276,2,437,61,493,265v14,50,19,133,19,247r-1792,0xm1792,-768v0,151,8,403,-18,502v-54,203,-219,266,-494,266r-768,0v-276,-2,-437,-61,-493,-265v-14,-50,-19,-133,-19,-247r1280,0r0,-256r-768,0v-276,-2,-437,-61,-493,-265v-14,-50,-19,-133,-19,-247r1280,0v276,2,437,61,493,265v14,50,19,133,19,247"},"t":{"d":"1792,-1536r-640,0r0,1536r-512,0r-2,-1536r-638,0r0,-512r1792,0r0,512"},"u":{"d":"512,-1536r-512,0r0,-512r512,0r0,512xm1792,-512v0,116,-5,198,-18,246v-54,203,-219,266,-494,266r-768,0v-276,-2,-437,-61,-493,-265v-14,-50,-19,-133,-19,-247r0,-768r512,0r0,768r768,0r0,-1536r512,0r0,1536","w":2025},"v":{"d":"512,-1536r-512,0r0,-512r512,0r0,512xm1792,-768r-768,768r-256,0r-768,-768r0,-512r512,0r0,384r384,384r384,-384r0,-1152r512,0r0,1280"},"w":{"d":"512,-1536r-512,0r0,-512r512,0r0,512xm2048,-512v0,116,-5,198,-18,246v-54,203,-219,266,-494,266r-1024,0v-276,-2,-437,-61,-493,-265v-14,-50,-19,-133,-19,-247r0,-768r512,0r0,768r256,0r0,-1280r512,0r0,1280r256,0r0,-1536r512,0r0,1536","w":2266},"x":{"d":"512,-1536r-512,0r0,-512r512,0r0,512xm1792,0r-512,0r0,-512r-384,-256r-384,256r0,512r-512,0r0,-512r18,-132v55,-228,223,-382,494,-380v-237,0,-414,-50,-493,-189v-7,-22,-13,-44,-19,-67r896,0r384,-256r0,-512r512,0r0,512r-18,132v-55,228,-223,382,-494,380v275,3,445,51,493,254v43,183,14,537,19,770"},"y":{"d":"512,-1536r-512,0r0,-512r512,0r0,512xm1792,-1280v0,116,-5,198,-18,246v-54,203,-219,264,-494,266r-128,0r0,768r-511,0r0,-768v-317,8,-567,-23,-622,-265v-12,-51,-19,-133,-19,-247r1280,0r0,-768r512,0r0,768"},"z":{"d":"1792,0r-1792,0r0,-512r1152,-1024r-1152,0r0,-512r1792,0r0,512r-1151,1024r1151,0r0,512"},"{":{"d":"1024,0v-223,1,-498,10,-616,-75v-127,-92,-152,-196,-152,-437r0,-256r-256,-256r256,-256v1,-151,-8,-403,18,-502v54,-203,219,-264,494,-266r256,0r0,512r-256,0r0,1024r256,0r0,512","w":1280},"|":{"d":"512,256r-512,0r0,-2560r512,0r0,2560","w":768},"}":{"d":"1024,-1024r-256,256v-1,151,9,403,-18,502v-55,205,-218,263,-493,266r-257,0r0,-512r256,0r0,-1024r-256,0r0,-512v223,-1,498,-10,616,75v127,92,152,196,152,437r0,256","w":1280},"~":{"d":"1536,-1536v0,116,-5,198,-18,246v-54,203,-219,266,-494,266v-276,0,-437,-61,-493,-265v-14,-50,-19,-133,-19,-247r-512,0v0,-116,5,-198,18,-246v54,-203,219,-266,494,-266v277,0,438,61,494,265v14,50,19,133,19,247r511,0","w":1792},"\u00a0":{"w":1536}}});
