/*!
 * The following copyright notice may not be removed under any circumstances.
 * 
 * Copyright:
 * Pussycat © 2000, Fontalicious Fonts.
 */
Cufon.registerFont({"w":334,"face":{"font-family":"Pussycat","font-weight":400,"font-stretch":"normal","units-per-em":"1000","panose-1":"0 0 4 0 0 0 0 0 0 0","ascent":"800","descent":"-200","x-height":"14","bbox":"-135 -842 835 287","underline-thickness":"50","underline-position":"-75","unicode-range":"U+0020-U+007E"},"glyphs":{" ":{"w":181},"!":{"d":"40,-122r121,0r0,122r-121,0r0,-122xm40,-664r121,0r0,497r-121,0r0,-497","w":161},"\"":{"d":"40,-444r0,-220r95,0r0,220r-95,0xm189,-444r0,-220r95,0r0,220r-95,0","w":284},"#":{"d":"165,-469r0,154r74,0r0,-154r-74,0xm165,-122r-85,0r0,-98r-40,0r0,-95r40,0r0,-154r-40,0r0,-95r40,0r0,-100r85,0r0,100r74,0r0,-100r85,0r0,100r49,0r0,95r-49,0r0,154r49,0r0,95r-49,0r0,98r-85,0r0,-98r-74,0r0,98","w":373},"$":{"d":"324,-417r-111,0v1,-32,3,-66,-29,-66v-19,0,-28,10,-28,31v-10,47,132,108,131,117v31,29,46,66,47,112v2,115,-47,172,-147,172v-112,0,-156,-69,-147,-192r116,0v-2,39,4,80,31,80v17,0,26,-14,26,-41v13,-56,-124,-109,-128,-122v-30,-30,-45,-73,-45,-129v0,-93,49,-140,147,-140v110,0,146,64,137,178xm145,-612r11,-29r-14,-28r31,1r22,-22r9,31r27,14r-26,17r-5,31r-24,-20xm145,37r11,-29r-14,-28r31,1r22,-22r9,30r27,15r-26,17r-5,31r-24,-20"},"%":{"d":"113,-562r0,128v0,18,9,27,26,27v17,0,25,-9,25,-27r0,-128v0,-18,-8,-27,-25,-27v-17,0,-26,9,-26,27xm164,-664v96,2,70,140,73,238v1,50,-26,95,-73,94r-51,0v-96,-2,-70,-140,-73,-238v-1,-50,26,-95,73,-94r51,0xm414,-322v96,2,70,140,73,238v1,50,-26,95,-73,94r-51,0v-96,-2,-70,-140,-73,-238v-1,-50,26,-95,73,-94r51,0xm363,-221r0,129v0,18,9,27,26,27v17,0,25,-9,25,-27r0,-129v0,-17,-8,-26,-25,-26v-17,0,-26,9,-26,26xm422,-664r58,0r-375,674r-58,0","w":487},"&":{"d":"259,-160r-68,-90v-27,22,-40,50,-40,83v0,39,16,58,48,58v19,0,39,-17,60,-51xm213,-415v29,-27,43,-57,43,-88v0,-36,-12,-54,-36,-54v-53,0,-38,112,-7,142xm355,-503v0,94,-22,119,-80,172r47,60r35,-64r125,0r-88,162v20,22,29,60,79,51r0,122v-86,2,-109,-8,-145,-70v-35,56,-79,84,-133,84v-104,1,-156,-74,-155,-183v0,-73,29,-131,88,-172v-31,-37,-47,-86,-47,-148v0,-117,46,-176,139,-176v90,0,135,54,135,162","w":472},"'":{"d":"40,-444r0,-220r95,0r0,220r-95,0","w":135},"(":{"d":"212,-100r0,100r-76,0v-64,0,-96,-38,-96,-115r0,-434v0,-77,32,-115,96,-115r76,0r0,100v-39,-2,-77,2,-77,37r0,390v-3,35,37,39,77,37","w":212},")":{"d":"40,0r0,-100v39,2,77,-2,77,-37r0,-390v3,-35,-37,-39,-77,-37r0,-100r76,0v64,0,96,38,96,115r0,434v0,77,-32,115,-96,115r-76,0","w":212},"*":{"d":"60,-495r29,-64r-29,-63r71,6r51,-47r15,69r61,35r-61,35r-15,70r-51,-47","w":253},"+":{"d":"112,-322r0,-102r95,0r0,102r72,0r0,112r-72,0r0,102r-95,0r0,-102r-72,0r0,-112r72,0","w":282},",":{"d":"40,-130r111,0r0,130r-57,130r-62,0r51,-130r-43,0r0,-130","w":150},"-":{"d":"44,-205r28,-64r-28,-64r70,6r52,-46r14,69r61,35r-61,35r-14,69r-52,-46","w":237},"\u2010":{"d":"44,-205r28,-64r-28,-64r70,6r52,-46r14,69r61,35r-61,35r-14,69r-52,-46","w":237},".":{"d":"40,-130r111,0r0,130r-111,0r0,-130","w":150},"\/":{"d":"169,-664r95,0r-152,678r-95,0","w":241},"0":{"d":"338,-141v0,103,-50,155,-149,155v-99,0,-149,-52,-149,-155r0,-368v0,-103,50,-155,149,-155v99,0,149,52,149,155r0,368xm217,-142r0,-366v0,-29,-9,-44,-28,-44v-19,0,-28,15,-28,44r0,366v0,29,9,44,28,44v19,0,28,-15,28,-44","w":365},"1":{"d":"125,0r0,-534r-85,0r0,-87r85,-43r121,0r0,664r-121,0","w":246},"2":{"d":"192,-664v117,0,156,52,152,177v-4,117,-26,130,-95,224v-32,43,-58,88,-78,134r176,0r0,129r-307,0v0,-109,-7,-162,48,-241v44,-63,136,-159,136,-238v0,-40,-11,-60,-32,-60v-49,1,-28,97,-32,147r-120,0r0,-105v0,-114,42,-167,152,-167","w":347},"3":{"d":"156,-224v2,46,-12,111,33,109v33,5,33,-60,33,-104v0,-73,-31,-65,-90,-64r0,-128v46,-1,90,12,90,-44v0,-39,4,-87,-33,-87v-38,0,-34,50,-33,89r-116,0v-10,-131,26,-213,151,-213v116,0,152,68,152,192v0,79,-28,119,-85,122r0,3v57,3,85,43,85,122r0,85v0,101,-51,152,-152,152v-101,0,-151,-51,-151,-152r0,-82r116,0","w":343},"4":{"d":"139,-292r84,0r0,-226r-2,0xm40,-166r0,-126r133,-372r165,0r0,372r44,0r0,126r-44,0r0,166r-115,0r0,-166r-183,0","w":382},"5":{"d":"244,-490v62,0,99,62,99,127r0,223v0,103,-51,154,-152,154v-127,0,-161,-87,-151,-222r116,0v-2,44,3,100,33,96v51,-6,33,-132,33,-193v0,-45,-11,-68,-33,-68v-24,0,-35,23,-33,57r-102,0r0,-348r267,0r0,130r-157,0v2,27,-4,62,2,85v7,-27,33,-41,78,-41","w":343},"6":{"d":"164,-276v4,56,-17,160,36,160v48,0,42,-99,14,-125v-11,-10,-26,-23,-50,-35xm200,-664v135,-3,164,88,156,229r-120,0v2,-44,1,-99,-36,-99v-24,0,-36,23,-36,69v-14,66,138,117,145,135v34,33,51,82,51,149v0,138,-33,195,-161,195v-121,0,-158,-48,-159,-172r0,-314v0,-127,40,-189,160,-192","w":359},"7":{"d":"51,0r132,-534r-143,0r0,-130r272,0r0,116r-133,548r-128,0","w":313},"8":{"d":"196,-296v-59,0,-35,93,-35,145v0,24,12,36,35,36v58,-1,34,-92,34,-144v0,-25,-11,-37,-34,-37xm196,-542v-27,0,-35,31,-35,72v0,40,12,60,35,60v26,0,34,-31,34,-72v0,-40,-11,-60,-34,-60xm196,10v-107,0,-156,-41,-156,-148r0,-82v-2,-88,32,-125,85,-133v-65,-7,-80,-83,-80,-176v0,-91,50,-137,151,-137v108,-1,150,62,150,179v0,80,-17,122,-80,134r0,2v82,-1,88,111,85,213v-3,108,-47,148,-155,148","w":352},"9":{"d":"236,-374v-4,-56,17,-160,-36,-160v-24,0,-36,20,-36,59v0,43,24,77,72,101xm200,14v-137,3,-164,-87,-157,-229r121,0v-2,44,-1,99,36,99v24,0,36,-23,36,-69v14,-66,-138,-117,-145,-135v-34,-33,-51,-82,-51,-149v0,-138,33,-195,161,-195v124,0,159,48,159,172r0,314v0,127,-40,189,-160,192","w":359},":":{"d":"40,-130r111,0r0,130r-111,0r0,-130xm40,-389r111,0r0,130r-111,0r0,-130","w":150},";":{"d":"40,-130r111,0r0,130r-57,130r-62,0r51,-130r-43,0r0,-130xm40,-390r111,0r0,130r-111,0r0,-130","w":150},"<":{"d":"35,-258r83,-125r88,0r-83,125r83,125r-88,0","w":206},"=":{"d":"502,-167r19,2v-2,-22,-3,-54,15,-54v27,0,12,40,15,64v3,27,-43,16,-67,21r-10,17v39,-1,66,7,88,29v31,-4,29,-30,29,-79v0,-45,0,-71,-1,-76v-1,-11,4,-17,15,-17v9,0,14,4,15,13v1,5,1,31,1,80v1,58,-4,95,-40,106v6,15,7,42,-11,41r-215,-9v-24,-3,-38,-11,-41,-24v-70,16,-17,9,-129,10v-25,0,-45,-37,-60,-54v-113,-124,-35,-380,123,-388v71,-3,78,76,31,97v-40,17,-65,22,-85,68v-10,23,-17,39,-17,50v-2,30,42,86,73,83v24,-3,28,-100,39,-135v17,-51,54,-90,100,-119v2,-7,7,-14,14,-20v-28,-4,-42,-12,-42,-25v0,-28,22,-52,67,-73v-2,-8,-3,-16,-2,-24v-34,-12,-79,-51,-79,-99v0,-19,20,-50,40,-50v55,0,92,14,112,41v37,-22,67,-25,112,-16v45,-47,84,-71,118,-71v31,0,47,11,47,33v1,42,-19,104,-45,118v5,10,9,21,11,33v44,0,71,21,81,62v3,11,1,17,-4,20v11,8,16,15,16,21v0,11,-18,17,-53,17v30,24,22,46,-23,47v-7,0,-14,0,-22,-1v11,121,15,206,13,255v4,6,74,38,63,67v4,36,-51,47,-96,47v-88,0,-90,-32,-90,-105v0,-10,5,-15,15,-15v27,0,11,38,13,67v-4,17,30,24,70,23v-1,-9,-7,-39,13,-34v9,0,15,10,17,31v46,-10,30,-19,-4,-42v-21,-14,-32,-28,-31,-41v3,-47,-17,-198,-13,-246v-71,36,-138,54,-202,54v-36,0,-123,-13,-74,-44v-15,2,-24,5,-35,1v-50,34,-78,77,-85,130v-9,72,-14,117,-61,123v-47,6,-103,-66,-103,-113v0,-36,37,-106,62,-118v4,-3,77,-28,70,-49v0,-12,-10,-18,-31,-18v-83,-3,-149,107,-147,197v2,93,32,128,84,185v68,0,90,0,67,1v27,-1,48,-6,63,-16v2,-15,0,-42,17,-41v29,2,6,46,12,67v17,7,87,11,208,12v-10,-35,-56,-41,-103,-36v-9,0,-14,-4,-14,-12v-5,-6,49,-85,46,-109v3,-30,-65,-48,-100,-47v-10,0,-15,-5,-15,-15v0,-10,5,-15,15,-15v76,-2,159,40,121,117xm711,-654v19,-18,31,-52,29,-88v-43,-2,-54,18,-89,48v10,4,19,9,28,14v11,-19,22,-29,31,-29v23,7,9,30,-2,52xm400,-498v5,5,47,0,49,14v0,2,-7,14,-22,36v5,13,54,-21,54,8v0,12,-7,27,-21,45v90,9,153,-7,248,-59v13,-7,25,-9,37,-8v-15,-22,5,-34,41,-38v-35,-21,-56,-36,-44,-60v-14,-14,-22,-16,-19,-23v-9,-83,-176,-146,-235,-64v-18,12,-33,107,-52,118v-11,7,-24,16,-36,31xm471,-671v-13,-17,-40,-25,-81,-25v-22,29,6,54,43,78v-8,-20,-25,-40,-22,-50v8,-24,24,-3,45,13v5,-5,10,-11,15,-16xm714,-530v0,3,-2,5,-5,5v-3,0,-5,-2,-5,-5v0,-3,2,-5,5,-5v3,0,5,2,5,5xm681,-539v0,3,-2,5,-5,5v-3,0,-5,-2,-5,-5v0,-3,2,-5,5,-5v3,0,5,2,5,5xm598,-614v21,-23,59,-3,58,25v0,23,-12,34,-35,34v-22,0,-33,-11,-34,-34r41,4xm693,-508v0,3,-2,5,-5,5v-3,0,-5,-2,-5,-5v0,-3,2,-5,5,-5v3,0,5,2,5,5xm647,-510v0,12,-10,18,-31,18v-21,0,-31,-6,-31,-18v0,-13,10,-19,31,-19v21,0,31,6,31,19xm511,-568v5,-44,67,-29,67,7v0,31,-44,47,-61,20r35,-20xm539,-488v0,3,-2,5,-5,5v-3,0,-5,-2,-5,-5v0,-3,2,-5,5,-5v3,0,5,2,5,5xm507,-487v0,4,-1,6,-5,6v-4,0,-5,-2,-5,-6v0,-3,2,-5,5,-5v3,0,5,2,5,5xm522,-454v0,4,-2,5,-6,5v-3,0,-5,-2,-5,-5v0,-4,2,-5,6,-5v3,0,5,2,5,5","w":837},">":{"d":"123,-383r83,125r-83,125r-88,0r83,-125r-83,-125r88,0","w":207},"?":{"d":"40,-445v-6,-136,14,-229,146,-229v97,0,146,58,146,174v0,51,-7,95,-26,128v-27,46,-78,85,-76,156r-111,0r0,-46v-8,-42,102,-185,93,-228v0,-48,-10,-72,-31,-72v-31,-7,-32,72,-30,117r-111,0xm119,-130r111,0r0,130r-111,0r0,-130","w":333},"@":{"d":"358,-405v-91,0,-136,183,-26,185v54,1,93,-57,93,-110v0,-41,-26,-75,-67,-75xm172,-283v0,-111,71,-217,176,-217v45,0,78,19,101,57r10,-46r77,0r-48,258v0,13,4,20,12,20v55,2,85,-84,85,-149v0,-139,-86,-227,-225,-227v-142,0,-233,119,-233,265v0,153,96,267,247,265v63,0,119,-22,168,-66r78,0v-61,95,-146,142,-253,142v-186,0,-327,-153,-327,-341v0,-184,138,-342,323,-342v159,0,293,118,293,278v0,135,-97,257,-214,264v-33,2,-42,-21,-48,-48v-80,112,-222,8,-222,-113","w":657},"A":{"d":"339,0r-120,0r0,-35v-17,33,-43,49,-79,49v-76,0,-107,-72,-100,-178v8,-114,25,-134,132,-165v70,-21,47,-106,47,-183v0,-27,-10,-40,-29,-40v-19,0,-29,13,-29,40r0,160r-111,0r0,-169v0,-95,49,-143,146,-143v95,0,143,48,143,143r0,521xm219,-247v-52,42,-52,34,-58,106v-4,48,58,63,58,10r0,-116","w":339},"B":{"d":"360,-146v0,97,-45,146,-136,146r-184,0r0,-664r181,0v105,-3,135,71,135,188v0,70,-29,109,-75,132v77,7,79,102,79,198xm207,-408v38,1,22,-61,25,-96v3,-38,-35,-29,-68,-30r0,126r43,0xm207,-130v43,-2,21,-78,25,-118v4,-38,-35,-29,-68,-30r0,148r43,0","w":361},"C":{"d":"196,-664v138,-3,165,84,157,227r-124,0v-3,-41,14,-97,-33,-97v-21,0,-32,17,-32,50r0,318v-10,60,65,66,65,18r0,-174r124,0r0,168v0,118,-42,168,-157,168v-114,0,-156,-51,-156,-168r0,-342v1,-116,41,-166,156,-168","w":353},"D":{"d":"193,-664v119,2,159,46,160,168r0,328v-1,122,-41,168,-160,168r-153,0r0,-664r153,0xm229,-192r0,-280v-1,-56,-17,-66,-65,-62r0,404v47,4,64,-6,65,-62","w":353},"E":{"d":"188,-664v112,0,148,57,148,173r0,137r-175,0r0,210v0,31,11,46,32,46v21,0,32,-15,32,-46r0,-158r111,0r0,176v0,93,-49,140,-148,140v-99,0,-148,-47,-148,-140r0,-365v0,-116,36,-173,148,-173xm225,-452v0,-41,6,-104,-32,-100v-38,-4,-32,59,-32,100r64,0","w":336},"F":{"d":"40,0r0,-664r255,0r0,130r-131,0r0,180r131,0r0,130r-131,0r0,224r-124,0","w":295},"G":{"d":"339,-132v0,114,-39,164,-148,164v-112,0,-144,-34,-146,-146r116,0v0,28,10,42,29,42v30,0,30,-42,29,-76v-12,9,-27,13,-44,13v-90,0,-135,-48,-135,-143r0,-243v0,-95,45,-143,135,-143v16,0,31,6,44,18r0,-18r120,0r0,532xm219,-287r0,-225v0,-27,-10,-40,-29,-40v-19,0,-29,13,-29,40r0,225v0,27,10,40,29,40v19,0,29,-13,29,-40","w":352},"H":{"d":"40,0r0,-664r124,0r0,310r72,0r0,-310r124,0r0,664r-124,0r0,-224r-72,0r0,224r-124,0","w":360},"I":{"d":"161,0r-121,0r0,-497r121,0r0,497xm40,-552r24,-53r-24,-53r59,5r43,-39r12,58r51,29r-51,29r-12,58r-43,-39","w":160},"J":{"d":"336,-542r-121,0r0,-122r121,0r0,122xm336,-122v0,93,-49,140,-148,140v-99,0,-148,-47,-148,-140r0,-102r111,0v3,47,-15,131,32,130v21,0,32,-15,32,-46r0,-357r121,0r0,375","w":336},"K":{"d":"334,0r-121,0r0,-170v0,-27,-9,-40,-28,-40v-19,0,-29,13,-29,40r0,170r-116,0r0,-664r116,0r0,360r93,-360r120,0r-98,356v87,34,58,190,63,308"},"L":{"d":"295,0r-255,0r0,-664r124,0r0,534r131,0r0,130","w":295},"M":{"d":"213,0r0,-512v0,-27,-9,-40,-28,-40v-19,0,-29,13,-29,40r0,512r-116,0r0,-664r116,0r0,18v13,-12,27,-18,43,-18v69,0,112,28,128,84v17,-50,51,-84,94,-84v59,0,89,41,89,124r0,540r-121,0r0,-502v0,-33,-8,-50,-23,-50v-21,0,-31,20,-31,60r0,492r-122,0","w":549},"N":{"d":"156,0r-116,0r0,-664r116,0r0,18v13,-12,27,-18,43,-18v90,0,135,48,135,143r0,521r-121,0r0,-512v0,-27,-9,-40,-28,-40v-19,0,-29,13,-29,40r0,512","w":358},"O":{"d":"338,-141v0,103,-50,155,-149,155v-99,0,-149,-52,-149,-155r0,-368v0,-103,50,-155,149,-155v99,0,149,52,149,155r0,368xm217,-142r0,-366v0,-29,-9,-44,-28,-44v-19,0,-28,15,-28,44r0,366v0,29,9,44,28,44v19,0,28,-15,28,-44","w":365},"P":{"d":"156,0r-116,0r0,-664r116,0r0,26v11,-9,26,-13,43,-13v90,0,135,48,135,143r0,243v0,95,-45,143,-135,143v-16,0,-30,-6,-43,-18r0,140xm155,-274v0,27,10,40,29,40v19,0,29,-13,29,-40r0,-225v0,-27,-10,-40,-29,-40v-19,0,-28,11,-28,34","w":357},"Q":{"d":"218,0r116,0r0,-664r-116,0r0,26v-12,-9,-26,-13,-43,-13v-90,0,-135,48,-135,143r0,243v0,95,45,143,135,143v16,0,30,-6,43,-18r0,140xm190,-234v-19,0,-29,-13,-29,-40r0,-225v0,-27,10,-40,29,-40v17,0,28,11,28,34r0,237v-2,23,-11,34,-28,34","w":357},"R":{"d":"156,0r-116,0r0,-664r116,0r0,18v13,-12,27,-18,43,-18v90,0,135,48,135,143r0,199r-121,0r0,-190v0,-27,-9,-40,-28,-40v-19,0,-29,13,-29,40r0,512","w":358},"S":{"d":"200,-664v113,0,156,56,156,173r0,88r-120,0v-1,-50,10,-131,-36,-131v-24,0,-36,23,-36,69v-14,66,138,117,145,135v34,33,51,82,51,149v0,138,-33,195,-161,195v-121,0,-158,-48,-159,-172r0,-87r124,0v1,49,-9,129,36,129v24,0,36,-20,36,-59v0,-85,-94,-106,-145,-147v-36,-29,-51,-82,-51,-150v0,-127,40,-192,160,-192","w":360},"T":{"d":"132,0r0,-534r-92,0r0,-130r308,0r0,130r-92,0r0,534r-124,0","w":348},"U":{"d":"338,-155v0,103,-50,155,-149,155v-99,0,-149,-52,-149,-155r0,-509r121,0r0,508v0,29,9,44,28,44v19,0,28,-15,28,-44r0,-508r121,0r0,509","w":364},"V":{"d":"339,-664r-100,664r-139,0r-100,-664r124,0r45,390r2,0r44,-390r124,0","w":376},"W":{"d":"299,-40v-25,27,-62,40,-110,40v-99,0,-149,-52,-149,-155r0,-509r121,0r0,508v0,29,9,44,28,44v19,0,28,-15,28,-44r0,-508r121,0r0,492v0,40,10,60,30,60v16,0,24,-17,24,-50r0,-502r121,0r0,540v0,83,-41,124,-124,124v-38,0,-68,-13,-90,-40","w":554},"X":{"d":"338,0r-121,0r0,-256v0,-29,-9,-44,-28,-44v-19,0,-28,15,-28,44r0,256r-121,0r0,-257v0,-65,21,-109,63,-134r-63,-273r123,0r25,252r3,0r28,-252r123,0r-66,273v41,25,62,69,62,134r0,257","w":363},"Y":{"d":"339,-126v0,93,-49,140,-148,140v-99,0,-148,-47,-148,-140r0,-98r111,0v3,46,-14,127,32,126v22,0,33,-15,33,-46r0,-147v-13,12,-28,18,-44,18v-90,0,-135,-48,-135,-143r0,-248r121,0r0,239v0,27,10,40,29,40v19,0,29,-13,29,-40r0,-239r120,0r0,538","w":363},"Z":{"d":"304,0r-264,0r0,-116r122,-432r-122,0r0,-116r260,0r0,116r-122,432r126,0r0,116","w":308},"[":{"d":"212,0r-172,0r0,-664r172,0r0,100r-77,0r0,464r77,0r0,100","w":211},"\\":{"d":"-14,-664r94,0r234,678r-94,0","w":275},"]":{"d":"212,0r-172,0r0,-100r77,0r0,-464r-77,0r0,-100r172,0r0,664","w":211},"^":{"d":"133,-387r-93,0r115,-277r85,0r115,277r-93,0r-64,-166","w":356},"_":{"d":"465,72r-425,0r0,-50r425,0r0,50","w":465},"`":{"d":"155,-700r-63,0r-90,-142r101,0","w":200},"a":{"d":"339,0r-120,0r0,-35v-17,33,-43,49,-79,49v-76,0,-107,-72,-100,-178v8,-114,25,-134,132,-165v70,-21,47,-106,47,-183v0,-27,-10,-40,-29,-40v-19,0,-29,13,-29,40r0,160r-111,0r0,-169v0,-95,49,-143,146,-143v95,0,143,48,143,143r0,521xm219,-247v-52,42,-52,34,-58,106v-4,48,58,63,58,10r0,-116","w":339},"b":{"d":"156,0r-116,0r0,-664r116,0r0,140v13,-12,27,-18,43,-18v90,0,135,48,135,143r0,243v0,95,-45,143,-135,143v-17,0,-32,-4,-43,-13r0,26xm155,-165v0,27,10,40,29,40v19,0,29,-13,29,-40r0,-225v0,-27,-10,-40,-29,-40v-19,0,-28,11,-28,34"},"c":{"d":"329,-173v8,119,-31,187,-145,187v-96,0,-144,-48,-144,-143r0,-392v0,-95,48,-143,144,-143v97,0,145,48,145,143r0,199r-110,0r0,-190v0,-27,-10,-40,-29,-40v-19,0,-29,13,-29,40r0,374v0,27,10,40,29,40v31,0,30,-41,29,-75r110,0","w":329},"d":{"d":"218,0r116,0r0,-664r-116,0r0,140v-13,-12,-27,-18,-43,-18v-90,0,-135,48,-135,143r0,243v0,95,45,143,135,143v17,0,31,-4,43,-13r0,26xm219,-165v0,27,-10,40,-29,40v-19,0,-29,-13,-29,-40r0,-225v0,-27,10,-40,29,-40v19,0,28,11,28,34"},"e":{"d":"188,-664v112,0,148,57,148,173r0,267r-175,0v3,46,-14,126,32,126v31,0,34,-38,32,-74r111,0v9,119,-31,186,-148,186v-99,0,-148,-47,-148,-140r0,-365v0,-116,36,-173,148,-173xm225,-322r0,-181v0,-33,-11,-49,-32,-49v-21,0,-32,16,-32,49r0,181r64,0","w":336},"f":{"d":"376,-380r-111,0r0,-126v0,-31,-11,-46,-32,-46v-21,0,-32,15,-32,46r0,166r174,0r0,116r-174,0r0,224r-121,0r0,-224r-40,0r0,-116r40,0r0,-184v0,-93,49,-140,148,-140v99,0,148,47,148,140r0,144","w":375},"g":{"d":"339,-132v0,114,-39,164,-148,164v-112,0,-144,-34,-146,-146r116,0v0,28,10,42,29,42v30,0,30,-42,29,-76v-12,9,-27,13,-44,13v-90,0,-135,-48,-135,-143r0,-243v0,-95,45,-143,135,-143v16,0,31,6,44,18r0,-18r120,0r0,532xm219,-287r0,-225v0,-27,-10,-40,-29,-40v-19,0,-29,13,-29,40r0,225v0,27,10,40,29,40v19,0,29,-13,29,-40","w":339},"h":{"d":"156,0r-116,0r0,-664r116,0r0,140v13,-12,27,-18,43,-18v90,0,135,48,135,143r0,399r-121,0r0,-390v0,-27,-9,-40,-28,-40v-19,0,-29,13,-29,40r0,390"},"i":{"d":"161,-542r-121,0r0,-122r121,0r0,122xm161,0r-121,0r0,-497r121,0r0,497","w":160},"j":{"d":"161,-542r-121,0r0,-122r121,0r0,122xm161,147v0,93,-49,140,-148,140v-99,0,-148,-47,-148,-140r0,-98r110,0v3,47,-14,128,33,126v21,0,32,-15,32,-46r0,-626r121,0r0,644","w":160},"k":{"d":"334,0r-121,0r0,-170v0,-27,-9,-40,-28,-40v-19,0,-29,13,-29,40r0,170r-116,0r0,-664r116,0r0,360r63,-246r119,0r-67,242v87,34,58,190,63,308"},"l":{"d":"161,0r-121,0r0,-664r121,0r0,664","w":160},"m":{"d":"213,0r0,-512v0,-27,-9,-40,-28,-40v-19,0,-29,13,-29,40r0,512r-116,0r0,-664r116,0r0,18v13,-12,27,-18,43,-18v69,0,112,28,128,84v17,-50,51,-84,94,-84v59,0,89,41,89,124r0,540r-121,0r0,-502v0,-33,-8,-50,-23,-50v-21,0,-31,20,-31,60r0,492r-122,0","w":509},"n":{"d":"156,0r-116,0r0,-664r116,0r0,18v13,-12,27,-18,43,-18v90,0,135,48,135,143r0,521r-121,0r0,-512v0,-27,-9,-40,-28,-40v-19,0,-29,13,-29,40r0,512"},"o":{"d":"338,-141v0,103,-50,155,-149,155v-99,0,-149,-52,-149,-155r0,-368v0,-103,50,-155,149,-155v99,0,149,52,149,155r0,368xm217,-142r0,-366v0,-29,-9,-44,-28,-44v-19,0,-28,15,-28,44r0,366v0,29,9,44,28,44v19,0,28,-15,28,-44","w":338},"p":{"d":"156,0r-116,0r0,-664r116,0r0,26v11,-9,26,-13,43,-13v90,0,135,48,135,143r0,243v0,95,-45,143,-135,143v-16,0,-30,-6,-43,-18r0,140xm155,-274v0,27,10,40,29,40v19,0,29,-13,29,-40r0,-225v0,-27,-10,-40,-29,-40v-19,0,-28,11,-28,34"},"q":{"d":"218,53v-6,100,132,160,202,84v22,-24,35,-51,35,-84r-121,0r0,-717r-116,0r0,26v-12,-9,-26,-13,-43,-13v-90,0,-135,48,-135,143r0,243v0,95,45,143,135,143v16,0,30,-6,43,-18r0,193xm190,-234v-19,0,-29,-13,-29,-40r0,-225v0,-27,10,-40,29,-40v17,0,28,11,28,34r0,237v-2,23,-11,34,-28,34","w":357},"r":{"d":"156,0r-116,0r0,-664r116,0r0,18v13,-12,27,-18,43,-18v90,0,135,48,135,143r0,199r-121,0r0,-190v0,-27,-9,-40,-28,-40v-19,0,-29,13,-29,40r0,512"},"s":{"d":"200,-664v135,-3,164,88,156,229r-120,0v2,-44,1,-99,-36,-99v-24,0,-36,23,-36,69v-14,66,138,117,145,135v34,33,51,82,51,149v0,138,-33,192,-161,195v-133,3,-164,-66,-159,-204r124,0v-2,41,7,74,36,74v24,0,36,-20,36,-59v0,-85,-94,-106,-145,-147v-36,-29,-51,-82,-51,-150v0,-127,40,-189,160,-192","w":360},"t":{"d":"376,-140v0,93,-49,140,-148,140v-99,0,-148,-47,-148,-140r0,-300r-40,0r0,-116r40,0r0,-108r121,0r0,108r175,0r0,116r-175,0r0,282v0,31,11,46,32,46v42,0,30,-69,32,-112r111,0r0,84","w":376},"u":{"d":"338,-155v0,103,-50,155,-149,155v-99,0,-149,-52,-149,-155r0,-509r121,0r0,508v0,29,9,44,28,44v19,0,28,-15,28,-44r0,-508r121,0r0,509","w":338},"v":{"d":"339,-664r-100,664r-139,0r-100,-664r124,0r45,390r2,0r44,-390r124,0","w":310},"w":{"d":"299,-40v-25,27,-62,40,-110,40v-99,0,-149,-52,-149,-155r0,-509r121,0r0,508v0,29,9,44,28,44v19,0,28,-15,28,-44r0,-508r121,0r0,492v0,40,10,60,30,60v16,0,24,-17,24,-50r0,-502r121,0r0,540v0,83,-41,124,-124,124v-38,0,-68,-13,-90,-40","w":512},"x":{"d":"338,0r-121,0r0,-256v0,-29,-9,-44,-28,-44v-19,0,-28,15,-28,44r0,256r-121,0r0,-257v0,-65,21,-109,63,-134r-63,-273r123,0r25,252r3,0r28,-252r123,0r-66,273v41,25,62,69,62,134r0,257","w":338},"y":{"d":"339,-126v0,93,-49,140,-148,140v-99,0,-148,-47,-148,-140r0,-98r111,0v3,46,-14,127,32,126v22,0,33,-15,33,-46r0,-147v-13,12,-28,18,-44,18v-90,0,-135,-48,-135,-143r0,-248r121,0r0,239v0,27,10,40,29,40v19,0,29,-13,29,-40r0,-239r120,0r0,538","w":339},"z":{"d":"304,0r-264,0r0,-116r122,-432r-122,0r0,-116r260,0r0,116r-122,432r126,0r0,116","w":304},"{":{"d":"229,-100r0,100v-91,6,-146,-6,-146,-104v0,-65,23,-171,-43,-174r0,-100v69,4,43,-118,43,-182v0,-98,54,-111,146,-104r0,100v-38,-2,-52,6,-51,44v2,92,14,175,-68,193v39,0,68,37,68,77v0,62,-29,165,51,150","w":228},"|":{"d":"40,0r0,-664r95,0r0,664r-95,0","w":135},"}":{"d":"40,-100r0,100v91,6,146,-6,146,-104v0,-65,-23,-171,43,-174r0,-100v-69,4,-43,-118,-43,-182v0,-98,-54,-111,-146,-104r0,100v37,-2,52,6,51,44v-2,92,-14,175,68,193v-41,0,-68,35,-68,77v0,62,28,165,-51,150","w":228},"~":{"d":"145,-344v33,-8,161,68,181,68v24,0,49,-24,74,-72r31,90v-25,57,-60,86,-105,86v-33,8,-161,-68,-181,-68v-24,0,-49,24,-74,72r-31,-90v25,-57,60,-86,105,-86","w":434},"\u00a0":{"w":181}}});
